Bobot ke-0:
[[ 0.0353955]
 [-0.0601871]
 [ 0.0884281]
 [ 0.1002436]
 [ 0.1494705]
 [-0.0436941]
 [ 0.0346314]
 [ 0.0019421]
 [-0.1717277]
 [-0.1440178]
 [-0.0523932]
 [ 0.1300102]
 [-0.0942863]
 [ 0.0475302]
 [-0.0343119]
 [-0.0191586]
 [ 0.0782057]
 [ 0.0471941]
 [ 0.1304488]
 [ 0.0503836]
 [ 0.1290458]
 [-0.0956175]
 [-0.0741727]
 [-0.1591349]
 [ 0.0309324]
 [-0.0402112]
 [-0.0150863]
 [ 0.1535084]
 [-0.1315097]
 [ 0.0282873]
 [-0.127161 ]
 [ 0.0396829]
 [-0.1328058]
 [-0.0852281]
 [-0.0762898]
 [-0.104934 ]
 [ 0.1526505]
 [-0.1366846]
 [ 0.081857 ]
 [-0.1037848]
 [-0.0396143]
 [ 0.0216579]
 [ 0.0650637]
 [ 0.0546473]
 [ 0.1052617]
 [-0.1608671]
 [-0.1306238]
 [-0.1888119]
 [-0.0011292]
 [ 0.1274133]
 [ 0.0402666]
 [-0.1449849]
 [-0.1057648]
 [ 0.0154216]
 [ 0.0890393]
 [-0.09206  ]
 [-0.0755877]
 [ 0.1569189]
 [ 0.0856288]
 [-0.0621097]
 [ 0.1305018]
 [-0.0493486]
 [-0.0766559]
 [-0.1070085]
 [-0.0991489]
 [-0.0464016]
 [ 0.023905 ]
 [ 0.0653417]
 [ 0.0505614]
 [-0.1225161]
 [-0.1223567]
 [-0.1717385]
 [ 0.0480066]
 [-0.0431258]
 [-0.099801 ]
 [-0.0007237]
 [ 0.0388279]
 [ 0.100596 ]
 [ 0.1268434]
 [-0.0759534]
 [-0.0751053]
 [-0.0649845]
 [ 0.1004721]
 [ 0.1300167]
 [ 0.088384 ]
 [ 0.0876965]
 [-0.0650192]
 [ 0.0508387]
 [-0.1125269]
 [-0.1658952]
 [ 0.1483004]
 [ 0.0385362]
 [-0.0391379]
 [ 0.0704076]
 [-0.0819852]
 [ 0.10569  ]
 [-0.0468073]
 [-0.0905314]
 [ 0.0282211]
 [ 0.1380309]
 [-0.1451403]
 [ 0.0904155]
 [-0.1197112]
 [-0.061853 ]
 [ 0.0379332]
 [ 0.0293931]
 [-0.1716109]
 [ 0.1194681]
 [ 0.0964408]
 [-0.0049373]
 [-0.0627513]
 [ 0.1129608]
 [ 0.1539449]
 [-0.0878644]
 [-0.0793567]
 [-0.0456478]
 [ 0.1564708]
 [-0.0516639]
 [-0.0444363]
 [ 0.1004949]
 [-0.0307585]
 [-0.071014 ]
 [ 0.1481185]
 [ 0.1185631]
 [ 0.0419772]
 [-0.1331491]
 [ 0.0585357]
 [-0.0313061]]

Bobot ke-0:
[[ 0.03539551]
 [-0.06018714]
 [ 0.08842811]
 [ 0.1002436 ]
 [ 0.14947052]
 [-0.04369412]
 [ 0.03463142]
 [ 0.00194214]
 [-0.17172766]
 [-0.14401782]
 [-0.05239321]
 [ 0.13001017]
 [-0.09428629]
 [ 0.04753019]
 [-0.03431188]
 [-0.01915857]
 [ 0.07820574]
 [ 0.04719414]
 [ 0.13044883]
 [ 0.05038363]
 [ 0.12904575]
 [-0.09561753]
 [-0.07417272]
 [-0.15913488]
 [ 0.03093241]
 [-0.04021123]
 [-0.01508634]
 [ 0.15350835]
 [-0.1315097 ]
 [ 0.02828734]
 [-0.12716097]
 [ 0.03968291]
 [-0.13280584]
 [-0.08522809]
 [-0.07628983]
 [-0.10493398]
 [ 0.15265049]
 [-0.13668458]
 [ 0.08185704]
 [-0.10378478]
 [-0.03961433]
 [ 0.02165789]
 [ 0.06506372]
 [ 0.05464731]
 [ 0.10526168]
 [-0.16086712]
 [-0.13062383]
 [-0.18881193]
 [-0.0011292 ]
 [ 0.12741335]
 [ 0.04026657]
 [-0.14498495]
 [-0.10576479]
 [ 0.01542156]
 [ 0.08903925]
 [-0.09205998]
 [-0.07558767]
 [ 0.15691891]
 [ 0.08562876]
 [-0.06210974]
 [ 0.13050178]
 [-0.04934857]
 [-0.07665592]
 [-0.10700846]
 [-0.09914887]
 [-0.04640164]
 [ 0.02390497]
 [ 0.06534172]
 [ 0.05056142]
 [-0.12251606]
 [-0.12235674]
 [-0.17173846]
 [ 0.04800664]
 [-0.04312579]
 [-0.099801  ]
 [-0.00072366]
 [ 0.03882785]
 [ 0.10059595]
 [ 0.12684341]
 [-0.07595344]
 [-0.07510529]
 [-0.06498446]
 [ 0.10047214]
 [ 0.1300167 ]
 [ 0.08838399]
 [ 0.08769653]
 [-0.06501917]
 [ 0.05083871]
 [-0.11252686]
 [-0.16589524]
 [ 0.14830042]
 [ 0.03853622]
 [-0.03913789]
 [ 0.07040755]
 [-0.08198517]
 [ 0.10569002]
 [-0.04680735]
 [-0.09053142]
 [ 0.02822109]
 [ 0.1380309 ]
 [-0.14514033]
 [ 0.09041554]
 [-0.1197112 ]
 [-0.06185298]
 [ 0.03793323]
 [ 0.02939311]
 [-0.17161092]
 [ 0.11946815]
 [ 0.09644081]
 [-0.00493733]
 [-0.06275133]
 [ 0.11296084]
 [ 0.15394486]
 [-0.08786444]
 [-0.0793567 ]
 [-0.0456478 ]
 [ 0.1564708 ]
 [-0.05166387]
 [-0.04443629]
 [ 0.10049488]
 [-0.03075846]
 [-0.07101398]
 [ 0.14811848]
 [ 0.11856312]
 [ 0.04197722]
 [-0.13314909]
 [ 0.05853568]
 [-0.03130612]]

Bobot ke-0:
[[ 0.03539551]
 [-0.06018714]
 [ 0.08842811]
 [ 0.1002436 ]
 [ 0.14947052]
 [-0.04369412]
 [ 0.03463142]
 [ 0.00194214]
 [-0.17172766]
 [-0.14401782]
 [-0.05239321]
 [ 0.13001017]
 [-0.09428629]
 [ 0.04753019]
 [-0.03431188]
 [-0.01915857]
 [ 0.07820574]
 [ 0.04719414]
 [ 0.13044883]
 [ 0.05038363]
 [ 0.12904575]
 [-0.09561753]
 [-0.07417272]
 [-0.15913488]
 [ 0.03093241]
 [-0.04021123]
 [-0.01508634]
 [ 0.15350835]
 [-0.1315097 ]
 [ 0.02828734]
 [-0.12716097]
 [ 0.03968291]
 [-0.13280584]
 [-0.08522809]
 [-0.07628983]
 [-0.10493398]
 [ 0.15265049]
 [-0.13668458]
 [ 0.08185704]
 [-0.10378478]
 [-0.03961433]
 [ 0.02165789]
 [ 0.06506372]
 [ 0.05464731]
 [ 0.10526168]
 [-0.16086712]
 [-0.13062383]
 [-0.18881193]
 [-0.0011292 ]
 [ 0.12741335]
 [ 0.04026657]
 [-0.14498495]
 [-0.10576479]
 [ 0.01542156]
 [ 0.08903925]
 [-0.09205998]
 [-0.07558767]
 [ 0.15691891]
 [ 0.08562876]
 [-0.06210974]
 [ 0.13050178]
 [-0.04934857]
 [-0.07665592]
 [-0.10700846]
 [-0.09914887]
 [-0.04640164]
 [ 0.02390497]
 [ 0.06534172]
 [ 0.05056142]
 [-0.12251606]
 [-0.12235674]
 [-0.17173846]
 [ 0.04800664]
 [-0.04312579]
 [-0.099801  ]
 [-0.00072366]
 [ 0.03882785]
 [ 0.10059595]
 [ 0.12684341]
 [-0.07595344]
 [-0.07510529]
 [-0.06498446]
 [ 0.10047214]
 [ 0.1300167 ]
 [ 0.08838399]
 [ 0.08769653]
 [-0.06501917]
 [ 0.05083871]
 [-0.11252686]
 [-0.16589524]
 [ 0.14830042]
 [ 0.03853622]
 [-0.03913789]
 [ 0.07040755]
 [-0.08198517]
 [ 0.10569002]
 [-0.04680735]
 [-0.09053142]
 [ 0.02822109]
 [ 0.1380309 ]
 [-0.14514033]
 [ 0.09041554]
 [-0.1197112 ]
 [-0.06185298]
 [ 0.03793323]
 [ 0.02939311]
 [-0.17161092]
 [ 0.11946815]
 [ 0.09644081]
 [-0.00493733]
 [-0.06275133]
 [ 0.11296084]
 [ 0.15394486]
 [-0.08786444]
 [-0.0793567 ]
 [-0.0456478 ]
 [ 0.1564708 ]
 [-0.05166387]
 [-0.04443629]
 [ 0.10049488]
 [-0.03075846]
 [-0.07101398]
 [ 0.14811848]
 [ 0.11856312]
 [ 0.04197722]
 [-0.13314909]
 [ 0.05853568]
 [-0.03130612]]

