[SimpleRNN Weights]
Input Kernel (Bobot):
[[ 1.69555008e-01  1.79979473e-03  9.76166353e-02  9.92277563e-02
   1.16562352e-01 -1.26404539e-01  6.32575825e-02 -4.56512161e-03
  -1.53445393e-01 -8.31195116e-02 -1.07657231e-01  2.42918935e-02
   3.94880697e-02  5.18063940e-02  5.05665317e-03 -1.69418424e-01
   8.73371884e-02  1.25524223e-01 -1.26951754e-01  1.42692532e-02
   9.72799584e-02  1.59450576e-01  1.28425816e-02  1.36002362e-01
   6.05191067e-02  1.17239639e-01 -1.03166839e-02 -1.23695143e-01
   2.50992011e-02  2.19436940e-02 -8.28962177e-02 -3.19100381e-03
   1.47982493e-01  9.85665098e-02 -1.20931700e-01 -1.71426952e-01
  -1.40741795e-01 -1.25203669e-01 -1.46631494e-01 -3.69708538e-02
  -7.70780817e-02  1.51655808e-01  2.92825233e-03  1.23811387e-01
   7.98701793e-02  1.84350282e-01 -1.61941871e-01 -9.68127549e-02
  -9.44366977e-02 -8.50481614e-02  9.15781856e-02  1.02220654e-01
   1.70889422e-01  2.70285327e-02  1.25477389e-01  9.47079286e-02
   1.57002360e-02  1.75329581e-01  4.30517159e-02 -6.99766204e-02
   8.51094276e-02 -8.94526318e-02 -1.29411995e-01 -1.41010974e-02
   3.28776166e-02  5.36632799e-02  8.15392565e-03 -8.24133307e-02
   1.23017408e-01 -7.67717585e-02  1.76459134e-01  1.74870295e-03
  -1.55267626e-01 -1.08432835e-02  8.25846493e-02  1.60611451e-01
   1.42180488e-01 -1.15942657e-01  1.50817027e-02 -1.63611934e-01
   6.52096495e-02 -1.08405361e-02  1.23179212e-01  9.97000709e-02
   1.02112249e-01 -6.31454140e-02 -9.08672437e-02  6.87303692e-02
   2.95477873e-03 -1.06408700e-01 -1.33359060e-01  1.20264031e-01
  -1.63789585e-01  1.42430738e-01 -2.91249901e-02 -1.67390540e-01
   5.11550009e-02 -7.15576932e-02  5.66540919e-02  1.01214752e-01
   3.86144482e-02 -9.11045298e-02  2.25216784e-02 -3.75657380e-02
   1.83234081e-01 -8.07295367e-02 -1.60669670e-01 -7.48713166e-02
  -1.50171807e-02 -1.58134535e-01 -1.67096496e-01 -5.05705960e-02
  -7.02039863e-04  1.79247007e-01 -1.58386081e-01  1.12158783e-01
  -1.12805583e-01  4.69731614e-02 -1.15632283e-04 -1.09113015e-01
   9.85919386e-02 -1.05333999e-01 -2.45690122e-02 -9.01580006e-02
   1.92508966e-01 -1.65231079e-01  2.34278254e-02  5.56739084e-02]]

Recurrent Kernel (Bobot):
[[-0.0062477  -0.0396516   0.10938865 ...  0.12455992 -0.08669723
   0.03833522]
 [ 0.00688244  0.14521217  0.01443323 ... -0.05189687  0.14328825
   0.01939465]
 [ 0.13602844  0.02601334  0.01749764 ...  0.10383461  0.02429194
  -0.00467619]
 ...
 [ 0.04697373 -0.02882074  0.05046734 ...  0.12379181  0.06025342
   0.0568178 ]
 [-0.19111687 -0.0014755   0.0539631  ...  0.10137257 -0.00265019
   0.1691408 ]
 [-0.11442281 -0.02281629 -0.0222005  ...  0.03361151 -0.09243941
  -0.09159551]]
