[SimpleRNN Bias]
[-0.0310329  0.005916  -0.0122835 -0.0104295 -0.0178938  0.0259741 -0.0167493 -0.0041918  0.0304091  0.0031376
  0.0103785  0.006065  -0.0077479 -0.0111493  0.0034933  0.0203174 -0.0118847 -0.0141502  0.0329831 -0.0100966
 -0.0164156 -0.0271066 -0.0082442 -0.0302951 -0.0047168 -0.0095047  0.001663   0.0161297 -0.0105128 -0.0036331
  0.0176662  0.0049606 -0.0251439 -0.0281237  0.0106987  0.0188547  0.030129   0.0081116  0.0146844  0.0115314
  0.0148828 -0.0204656  0.0104353 -0.0201173 -0.0145938 -0.0196137  0.0220365  0.016033   0.0263202  0.0157002
 -0.0059556 -0.0169003 -0.0254899  0.0035277 -0.0203228 -0.0147314 -0.0051272 -0.028332  -0.0052649  0.0049562
 -0.0185474  0.0213852  0.0261106 -0.008119  -0.000884  -0.0075314 -0.0072619  0.0066357 -0.0102887  0.0118745
 -0.0197615 -0.0021822  0.0230848  0.0033004 -0.015838  -0.0257741 -0.0267828  0.0154497 -0.0021764  0.0351563
 -0.0091037  0.009428  -0.019199  -0.0315742 -0.0165258 -0.0000803  0.0143588 -0.0150758  0.0035929  0.0121319
  0.0226339 -0.0265029  0.0128548 -0.0234493  0.0000173  0.021176  -0.0125021  0.0110787 -0.0058468 -0.0193516
 -0.0185302  0.0136343 -0.0092107 -0.0073548 -0.0163252  0.0116057  0.03361    0.0119901  0.0052038  0.0134771
  0.0302151  0.0137496 -0.0055501 -0.0205759  0.0331991 -0.0097066  0.0032497 -0.0240836  0.0065887  0.0124346
 -0.0100384  0.0110302  0.0061999  0.010429  -0.0319516  0.0242005  0.0032411  0.0052047]
