[SimpleRNN Bias]
[-3.1032877e-02  5.9159617e-03 -1.2283479e-02 -1.0429456e-02
 -1.7893776e-02  2.5974078e-02 -1.6749293e-02 -4.1917595e-03
  3.0409122e-02  3.1376248e-03  1.0378540e-02  6.0649561e-03
 -7.7478718e-03 -1.1149256e-02  3.4933344e-03  2.0317405e-02
 -1.1884717e-02 -1.4150158e-02  3.2983128e-02 -1.0096596e-02
 -1.6415620e-02 -2.7106602e-02 -8.2442258e-03 -3.0295119e-02
 -4.7167856e-03 -9.5047085e-03  1.6629564e-03  1.6129723e-02
 -1.0512840e-02 -3.6331108e-03  1.7666161e-02  4.9605602e-03
 -2.5143936e-02 -2.8123744e-02  1.0698677e-02  1.8854696e-02
  3.0129023e-02  8.1115682e-03  1.4684428e-02  1.1531419e-02
  1.4882832e-02 -2.0465551e-02  1.0435335e-02 -2.0117316e-02
 -1.4593803e-02 -1.9613748e-02  2.2036482e-02  1.6033001e-02
  2.6320158e-02  1.5700212e-02 -5.9556221e-03 -1.6900251e-02
 -2.5489934e-02  3.5277493e-03 -2.0322800e-02 -1.4731429e-02
 -5.1271520e-03 -2.8331950e-02 -5.2649495e-03  4.9561933e-03
 -1.8547416e-02  2.1385215e-02  2.6110588e-02 -8.1190374e-03
 -8.8399916e-04 -7.5313700e-03 -7.2618844e-03  6.6356622e-03
 -1.0288741e-02  1.1874491e-02 -1.9761475e-02 -2.1821852e-03
  2.3084829e-02  3.3004035e-03 -1.5838027e-02 -2.5774103e-02
 -2.6782840e-02  1.5449679e-02 -2.1764471e-03  3.5156313e-02
 -9.1036968e-03  9.4279544e-03 -1.9198950e-02 -3.1574249e-02
 -1.6525801e-02 -8.0336657e-05  1.4358803e-02 -1.5075799e-02
  3.5928614e-03  1.2131908e-02  2.2633908e-02 -2.6502864e-02
  1.2854806e-02 -2.3449309e-02  1.7264514e-05  2.1175997e-02
 -1.2502111e-02  1.1078738e-02 -5.8467551e-03 -1.9351594e-02
 -1.8530175e-02  1.3634335e-02 -9.2107039e-03 -7.3547699e-03
 -1.6325232e-02  1.1605686e-02  3.3610042e-02  1.1990095e-02
  5.2038459e-03  1.3477124e-02  3.0215144e-02  1.3749639e-02
 -5.5501116e-03 -2.0575877e-02  3.3199124e-02 -9.7065894e-03
  3.2496669e-03 -2.4083650e-02  6.5886942e-03  1.2434626e-02
 -1.0038396e-02  1.1030222e-02  6.1999094e-03  1.0428970e-02
 -3.1951580e-02  2.4200482e-02  3.2411423e-03  5.2047186e-03]
