[SimpleRNN Bias]
[ 0.0093156 -0.0077168 -0.0025934  0.0123097  0.0030683 -0.0014725  0.0099486  0.0053884  0.0001292  0.0019852
 -0.023045  -0.0061487  0.0059155  0.0122458 -0.0059069 -0.0076257  0.0060939 -0.007269   0.0035712  0.0232166
  0.0096038 -0.0069379 -0.0116685 -0.0018233  0.0025609 -0.007138  -0.0190524  0.0120192 -0.0076985  0.015598
  0.0117766  0.0110278 -0.0033639 -0.0108167 -0.0078449 -0.0152166  0.0049993 -0.0031412  0.0251499 -0.0168961
 -0.0098936  0.002218   0.0088923  0.0082015  0.0101616 -0.0072109 -0.0206928 -0.0090142  0.0084406  0.0113906
  0.0070757 -0.0046753 -0.0117927  0.007472  -0.0134465 -0.0068529 -0.0118498  0.0105753  0.0111754  0.0003126
  0.0097041  0.0119566 -0.0127602  0.0078225 -0.0080727 -0.0096017  0.0033253  0.0118838  0.002239  -0.0000533
 -0.0123674  0.0011647  0.0113013 -0.0063281 -0.0132266 -0.0112317  0.0020035  0.0065659  0.0057718 -0.0066423
 -0.0095375 -0.0339008  0.0124796  0.0049569  0.0052389  0.0056684 -0.0090101  0.0151946 -0.0131951 -0.0097962
  0.005554   0.012735  -0.0069589  0.0264262 -0.0081885  0.0103492 -0.0089752 -0.0133686  0.0045846  0.0005643
 -0.0142126  0.007278  -0.0138008 -0.0116998 -0.0045195  0.0033718 -0.0175257  0.0063752  0.0047208 -0.0005805
 -0.0309552  0.0018696  0.0161821  0.0092772 -0.0178752 -0.010463   0.0001368  0.0123492 -0.0087279  0.0056946
  0.0051277 -0.0083088  0.0160014  0.0035475  0.0033386 -0.0076274  0.0155275 -0.0045102]
