[SimpleRNN Bias]
[ 9.31559876e-03 -7.71684293e-03 -2.59338133e-03  1.23096751e-02
  3.06834816e-03 -1.47250702e-03  9.94861964e-03  5.38840657e-03
  1.29200998e-04  1.98516366e-03 -2.30450239e-02 -6.14868850e-03
  5.91551233e-03  1.22457705e-02 -5.90686314e-03 -7.62573723e-03
  6.09387690e-03 -7.26896198e-03  3.57124046e-03  2.32166331e-02
  9.60376114e-03 -6.93786470e-03 -1.16685173e-02 -1.82334241e-03
  2.56089820e-03 -7.13804225e-03 -1.90523732e-02  1.20192198e-02
 -7.69845443e-03  1.55980336e-02  1.17766270e-02  1.10278456e-02
 -3.36391525e-03 -1.08166896e-02 -7.84494728e-03 -1.52166104e-02
  4.99928650e-03 -3.14121414e-03  2.51498912e-02 -1.68960504e-02
 -9.89363249e-03  2.21802620e-03  8.89229588e-03  8.20145663e-03
  1.01615563e-02 -7.21089216e-03 -2.06927806e-02 -9.01415013e-03
  8.44055414e-03  1.13906469e-02  7.07567669e-03 -4.67528682e-03
 -1.17927305e-02  7.47198751e-03 -1.34465350e-02 -6.85291924e-03
 -1.18497908e-02  1.05752563e-02  1.11754220e-02  3.12638615e-04
  9.70414653e-03  1.19565614e-02 -1.27602322e-02  7.82252569e-03
 -8.07270315e-03 -9.60167963e-03  3.32534476e-03  1.18837804e-02
  2.23900029e-03 -5.33493294e-05 -1.23673612e-02  1.16473192e-03
  1.13012874e-02 -6.32807985e-03 -1.32266004e-02 -1.12317493e-02
  2.00345786e-03  6.56588189e-03  5.77179529e-03 -6.64233882e-03
 -9.53749195e-03 -3.39008495e-02  1.24796070e-02  4.95689968e-03
  5.23894792e-03  5.66843711e-03 -9.01012029e-03  1.51946405e-02
 -1.31950555e-02 -9.79624968e-03  5.55399898e-03  1.27349598e-02
 -6.95891492e-03  2.64262352e-02 -8.18851776e-03  1.03492178e-02
 -8.97524226e-03 -1.33686140e-02  4.58460953e-03  5.64308546e-04
 -1.42126009e-02  7.27801397e-03 -1.38007682e-02 -1.16998237e-02
 -4.51949565e-03  3.37176910e-03 -1.75257176e-02  6.37519546e-03
  4.72077029e-03 -5.80530206e-04 -3.09551861e-02  1.86962588e-03
  1.61821339e-02  9.27716866e-03 -1.78751554e-02 -1.04629742e-02
  1.36842398e-04  1.23492135e-02 -8.72793980e-03  5.69457514e-03
  5.12773544e-03 -8.30877665e-03  1.60014052e-02  3.54748359e-03
  3.33864661e-03 -7.62743782e-03  1.55274924e-02 -4.51023085e-03]
