[LSTM Weights]
Input Gate Kernel:
[[ 1.96973421e-02  4.03148532e-02 -8.94860085e-03  4.12234142e-02
  -3.46006751e-02  1.82691813e-02 -2.70762444e-02 -4.26897220e-02
  -5.78613728e-02  1.45518839e-01  8.66784975e-02 -7.09502995e-02
   1.11561902e-01  2.17758538e-03  4.05517966e-02 -2.93619856e-02
  -3.85406017e-02  3.98027226e-02  3.79817039e-02  2.98706559e-03
   5.45024052e-02 -2.31716260e-02 -3.60670760e-02  2.69137863e-02
  -6.59866259e-02  1.27634639e-02  7.72865489e-02  2.27534138e-02
  -6.98056594e-02 -6.40476719e-02  4.67647463e-02  1.06745483e-02
   7.12798089e-02  4.94047031e-02  2.68137306e-02 -3.30084786e-02
   8.02992433e-02 -7.93615505e-02  1.77132562e-02 -7.87964743e-03
   1.23645067e-02 -7.27620423e-02 -6.63601831e-02  1.96545534e-02
   8.25543478e-02 -3.50680873e-02  5.33001013e-02  7.54370242e-02
   1.71569195e-02  3.15788835e-02  1.09875895e-01  1.10162884e-01
   3.72644253e-02 -8.23306665e-03 -2.13081227e-03 -3.01256459e-02
   6.09375387e-02  3.69402543e-02  2.84461807e-02  1.10822447e-01
   1.39370523e-02  1.11185372e-01  2.68484820e-02 -4.10950631e-02
   4.56859544e-02  5.04772440e-02  1.07949287e-01  1.51011581e-02
  -2.35357564e-02 -3.72639461e-03 -1.18688345e-02  7.08938064e-03
   6.47164434e-02 -3.96957472e-02  5.15656956e-02  1.97127983e-02
  -3.49393487e-02 -2.07095966e-02  8.29328150e-02  9.46103632e-02
   1.32087283e-02  1.52751496e-02 -1.20670181e-02  1.00262478e-01
   6.45928308e-02  1.30918305e-02  1.61450654e-02  2.19107661e-02
  -1.68256287e-03  1.32766351e-01  5.47784641e-02  1.07281618e-01
   3.37829478e-02 -8.07606708e-03  3.84256318e-02  2.20322795e-02
   1.26246318e-01  7.61952670e-03 -6.59996718e-02 -1.78733058e-02
  -3.58233750e-02  5.24941012e-02 -8.34152941e-03 -6.20248653e-02
   2.41247714e-02 -6.87373355e-02 -4.89951484e-03  7.74927884e-02
   9.07663107e-02  1.20669575e-02  1.02666073e-01 -3.16863358e-02
   6.77750409e-02  8.88932049e-02  3.15342061e-02 -1.02071710e-01
   5.48774265e-02 -1.23500805e-02  7.67877996e-02  1.12501355e-02
  -5.03748283e-02  2.01361626e-02  8.06755498e-02  4.45119105e-02
   1.56086355e-01  2.41519854e-04  4.04803790e-02  2.33851783e-02
   6.81612566e-02 -5.15183397e-02  9.58448425e-02  2.03040149e-03
  -4.47821505e-02  8.13138485e-02  3.80782932e-02 -6.08348660e-02
   1.85114462e-02  9.11876336e-02  1.37920409e-01  7.74436668e-02
  -2.21295469e-02  7.63437524e-02  3.87998670e-02  1.50477827e-01
  -4.85695451e-02 -2.08728388e-02  1.03811719e-01  5.78628257e-02
   1.00289509e-01 -2.39870790e-02 -2.88183186e-02  4.52519320e-02
  -7.86228850e-02  8.24628174e-02 -3.34199667e-02  6.42243400e-02
   1.53372427e-02  1.85635332e-02 -2.22429503e-02  1.13791823e-01
  -7.07574338e-02  6.73157275e-02  7.43594894e-04  2.66402904e-02
  -4.60567977e-03  2.26029009e-02  5.23038860e-03 -4.78527993e-02
  -8.92150626e-02  2.96098161e-02  2.86163148e-02 -1.88514180e-02
  -2.41274033e-02 -7.12263398e-03  7.37199560e-02  9.46164597e-03
  -7.93579742e-02  4.00387757e-02  3.05971447e-02 -1.95130880e-03
  -1.75281297e-02  2.40243692e-02  5.74554764e-02 -1.68926490e-05
   4.08908725e-02 -6.75861165e-02  3.50237973e-02 -1.23423878e-02
  -2.79437993e-02  1.88752711e-01  1.19861625e-02 -4.42922600e-02
   2.23400462e-02  4.89961430e-02  2.76867636e-02  5.85479522e-03
   3.94391194e-02  4.30620089e-02 -8.26800764e-02  3.28899138e-02
  -6.92286715e-02  1.54652596e-01  4.72852737e-02 -4.35950048e-02
  -6.94622705e-03 -3.55914682e-02 -3.41805853e-02  3.79605368e-02
   1.15499660e-01  3.37170325e-02  7.09041804e-02  3.36019248e-02
  -1.40862158e-02  4.09792410e-03  1.05445404e-02 -2.22704243e-02
   9.27851349e-02 -2.56445166e-02 -4.09748480e-02  1.97887457e-05
  -3.93591672e-02  7.61647001e-02  1.31320715e-01  5.06686419e-02
   3.93032543e-02  9.39845759e-03  4.60408889e-02  5.23500964e-02
   1.32632881e-01 -7.12627321e-02 -5.37226163e-02  1.34280389e-02
   2.63039209e-02  2.28692740e-02  5.27961254e-02 -8.74968693e-02
   9.91084874e-02  1.10925518e-01 -8.24025646e-02  7.20574632e-02
   6.57126401e-03  6.37319088e-02  6.83624437e-03 -2.93029472e-02
   9.68826469e-03  7.15190172e-02  1.68751702e-02 -3.41102062e-03
   5.63238524e-02 -2.62710117e-02  1.96549855e-02  1.19834967e-01
   1.06117176e-02  4.94155921e-02 -4.84692715e-02  1.99327432e-02]]

Forget Gate Kernel:
[[ 0.05876308 -0.02868557 -0.01726654 -0.05683129 -0.07080966 -0.03584241
  -0.00643578  0.02247962 -0.06593401 -0.04798295  0.01703347 -0.04597609
   0.00384239  0.0211062  -0.01996396  0.08399631  0.00984498 -0.09654082
   0.00098916 -0.03776765  0.07280704 -0.03885179  0.03086128 -0.01254661
  -0.02379639 -0.01192229  0.02830165 -0.0857431  -0.04492147 -0.0627969
  -0.10660808  0.0583687  -0.07607289  0.07100745 -0.06171341 -0.09880839
  -0.00139453 -0.09350725  0.01756673 -0.03334527 -0.0204384  -0.07525954
   0.05619572 -0.06063577  0.02469285  0.00856327 -0.058339   -0.02327246
  -0.07851313 -0.02406483 -0.00564201 -0.00173262 -0.03588764 -0.02154865
   0.08907391  0.04812442  0.00274117  0.02480436  0.02860503 -0.02892521
  -0.04927415 -0.05639886 -0.04924732 -0.06440215  0.02451973 -0.00581261
   0.04032095 -0.07900555 -0.02096862 -0.02313905  0.04721964 -0.01584147
   0.00040185  0.02677737 -0.07999483  0.0027371   0.01019926 -0.06724553
  -0.01976952 -0.03741762  0.00480404  0.01251642 -0.08488765 -0.01697867
  -0.01475141  0.05612243 -0.02725312 -0.08533493  0.03846912  0.05677797
  -0.01646422 -0.05245604  0.02161311  0.0338296   0.00245676  0.05536559
  -0.005563    0.03372214 -0.05139326  0.0368594   0.00920398  0.02511979
   0.02490417 -0.07481177 -0.05874793 -0.07593675  0.0015066   0.01642411
   0.03617878  0.00341727 -0.035121   -0.06847688  0.01870403 -0.05443131
  -0.04000058 -0.0199562  -0.08887956  0.04314965  0.04807986 -0.07357575
   0.02268269 -0.04043176 -0.04921971  0.01550817 -0.04135463 -0.04102954
  -0.06025486 -0.00943501 -0.03349521 -0.0875766   0.0109551  -0.07986298
  -0.09198401  0.00404961 -0.03505599 -0.00106039 -0.00895962  0.02055006
  -0.06148285  0.00418481  0.02944987 -0.01357411 -0.05637391 -0.02401138
  -0.0388996  -0.04699631 -0.00523658 -0.05101575 -0.06328371 -0.09377632
   0.01909508  0.03362975  0.05044814 -0.01639669 -0.09669367 -0.01808374
  -0.05243265 -0.03442832  0.06495558  0.01517198  0.0076175   0.08348281
   0.05410742 -0.07555517 -0.03576736 -0.04151642  0.05268024  0.00291071
   0.00592533  0.08083237  0.05849043  0.0849482   0.06339885 -0.04772193
  -0.0225183  -0.02002971 -0.00069105  0.0243133   0.03879786  0.05716549
  -0.04924751 -0.02630753  0.08156839  0.04934163 -0.01430304 -0.058561
  -0.05970304 -0.11604011 -0.0060455  -0.02961792  0.05119994 -0.07866417
  -0.0990821  -0.06722651 -0.00608571  0.02242088  0.0497771  -0.01354973
  -0.03979364 -0.01607735 -0.00015884 -0.07746896 -0.0627795   0.02747449
  -0.00952467  0.01451104 -0.06414997 -0.02051784 -0.01930654 -0.05113142
   0.03611424  0.02911012 -0.06975468 -0.01933483 -0.0741408  -0.0038523
  -0.02863223  0.00173243 -0.0400523   0.01941692 -0.08041284 -0.0390353
   0.06941922  0.03383119 -0.0453708  -0.04209073  0.07309514 -0.06969506
   0.09107994 -0.03655846  0.01293823  0.04530449 -0.0637123  -0.03180566
   0.07649796 -0.07898729 -0.00082885  0.0069812  -0.04830079  0.03162154
  -0.04629557  0.05274251 -0.00995968 -0.03270494 -0.06444906 -0.06263942
   0.06239268 -0.01299865 -0.10731649 -0.05900805 -0.07856619 -0.03875508
   0.08040787  0.0058632   0.01161691  0.03480427]]

Cell Gate Kernel:
[[-9.89102051e-02  1.10304154e-01  9.15959850e-02 -1.32834231e-02
   5.33577874e-02  8.28416925e-03  3.66013348e-02  5.27570918e-02
  -1.82480961e-02 -1.59788996e-01  9.73737836e-02 -6.60767837e-04
  -1.05380557e-01  1.04862869e-01 -9.14065018e-02  4.19002213e-02
  -1.00203805e-01  2.19153184e-02  1.67112667e-02  7.22889751e-02
  -9.65815261e-02 -1.61700528e-02 -3.43723036e-02  1.65249724e-02
   2.22790986e-02 -1.89104222e-03 -1.19432129e-01 -3.65238078e-02
  -2.18676906e-02 -5.16797416e-03  7.35498890e-02  8.50181282e-02
   2.49219444e-02  6.52535781e-02 -7.88786858e-02 -2.86727771e-02
   1.09083287e-01 -1.35365711e-03  7.58806989e-02 -1.15475871e-01
   3.26481275e-02  4.34202291e-02 -8.04581046e-02  4.58108224e-02
   1.02802657e-01  6.12360425e-03  1.02813154e-01  1.01447873e-01
   8.48259628e-02  8.10358077e-02  8.02098736e-02  1.16277739e-01
  -5.97980991e-02  3.58933061e-02 -1.14677824e-01  6.30232394e-02
   2.13358011e-02 -3.64229642e-02 -3.95330004e-02 -8.48160163e-02
  -7.28647932e-02  1.01882383e-01  2.56495876e-03 -5.43337278e-02
   9.61019397e-02 -1.05932698e-01 -8.70872512e-02  6.78442232e-03
   1.07624061e-01 -2.90761646e-02  8.78943577e-02  4.72374680e-03
   1.00596532e-01 -3.22463848e-02  8.46070424e-03 -7.75230303e-02
   1.99416839e-02 -3.16959023e-02  8.22506472e-02 -6.17816262e-02
   8.96821320e-02  3.72496918e-02  4.72550318e-02  1.30323276e-01
  -7.96587840e-02  1.23864278e-01  2.71138176e-02  6.10732147e-03
  -4.02893424e-02 -7.20275491e-02  5.99178560e-02 -1.17360435e-01
   9.38657597e-02 -1.10486604e-01 -4.96719219e-03  1.78291351e-02
   9.00410339e-02  7.74765108e-03 -3.06494106e-02  1.22010633e-01
   1.43468976e-02  8.09813291e-02 -3.47954109e-02 -2.85183247e-02
   4.85349223e-02  6.19211234e-02 -8.04172084e-02 -1.23934768e-01
   9.57695842e-02  4.23593260e-02  6.21623062e-02  2.97220685e-02
   8.46705362e-02 -9.14169550e-02 -2.92588156e-02  3.08633912e-02
   2.82913595e-02  8.84097517e-02 -7.95126110e-02  8.07336438e-03
   4.15795445e-02  1.07115775e-01 -6.37442693e-02  3.63061531e-03
   1.25909060e-01  8.82604122e-02  1.06503613e-01 -6.73491955e-02
  -9.08158645e-02  6.89741150e-02  1.32100970e-01 -1.11297486e-04
   2.37731710e-02  8.94345641e-02 -1.04563951e-01  5.45028131e-03
   9.65762697e-03  6.37217388e-02  7.68590197e-02 -7.26397038e-02
   4.28220928e-02 -1.25923231e-01 -3.17391232e-02 -8.73682499e-02
   4.57528904e-02  4.87790033e-02  1.17370538e-01 -5.16105592e-02
   1.04611807e-01  4.20173854e-02  1.01620749e-01 -8.24182555e-02
   4.35365306e-04 -1.05069906e-01 -3.23830098e-02 -9.52768251e-02
  -6.27854094e-02 -3.69564146e-02  3.20426188e-02  9.24491510e-02
  -2.61593051e-02 -1.14812270e-01  8.50109309e-02 -5.55076487e-02
   1.24445125e-01 -1.31646603e-01  1.07857667e-01 -7.23905042e-02
   2.87544522e-02  4.54720631e-02  5.01566604e-02 -7.06696808e-02
  -5.97984679e-02 -9.79472026e-02 -1.08263358e-01 -8.22198913e-02
   4.37707752e-02 -1.18088335e-01 -3.80254872e-02 -8.67420360e-02
  -1.05111420e-01 -5.21856435e-02 -8.33783224e-02 -9.29646790e-02
   9.52844769e-02 -1.10853668e-02  1.12048775e-01  6.51912205e-03
   4.05433588e-02 -1.12652913e-01 -7.93127790e-02  5.73867299e-02
  -1.75755229e-02  9.33829695e-02  7.96497464e-02  1.10868849e-01
  -3.24749760e-02 -6.92375153e-02  8.67635477e-03  1.01577848e-01
  -3.88937294e-02  9.48554501e-02 -3.48444432e-02 -4.06290740e-02
  -4.25694287e-02 -9.02547389e-02  2.87443306e-02 -1.98418796e-02
  -1.12266511e-01  3.97073152e-03 -1.17661618e-01  1.26690388e-01
   6.07562391e-03 -1.05887465e-01 -8.85843188e-02 -8.34287629e-02
   9.46468487e-02 -1.06585599e-01 -7.07615465e-02  1.97237078e-02
   3.27086411e-02 -1.14044338e-01  1.20765984e-01  1.04628138e-01
   1.20339179e-02  8.24539214e-02  9.43100154e-02 -9.19433758e-02
  -1.18657865e-01  3.98674747e-03 -1.99570917e-02 -7.32078403e-02
  -2.02702489e-02 -6.22541457e-02 -8.00274312e-02 -3.57852615e-02
   7.38479048e-02  1.25675321e-01 -2.44361274e-02  6.33272827e-02
  -7.59148449e-02  1.09919153e-01  8.66656974e-02 -3.46588567e-02
  -7.70160109e-02  1.01142526e-01 -7.47608691e-02  3.36067416e-02
  -9.30387229e-02  6.00216947e-02  2.50919946e-02  9.87716913e-02
  -1.11457616e-01 -4.72403690e-02  7.50201270e-02 -7.53794760e-02]]

Output Gate Kernel:
[[ 0.01797306  0.06585214  0.10653932 -0.00855682  0.03315471 -0.04017433
   0.06119938 -0.08244161  0.04987501  0.24341074  0.08326177 -0.01958469
   0.02262426  0.03904477  0.02419721 -0.03762652  0.02190182 -0.02059265
   0.06314209  0.0141847   0.05531587  0.05699409 -0.07004123 -0.01417966
  -0.00387684  0.00173911  0.00231547 -0.03931001  0.0363078   0.07981148
   0.13599509  0.08046006  0.04060257  0.05874321  0.13295019 -0.04897246
  -0.02520528 -0.04339439  0.1112256   0.02483115  0.01016525  0.10326631
   0.01287023  0.05891855  0.10440248  0.03492417  0.15042226  0.10265212
   0.08469124  0.10281423  0.23995858  0.1095423   0.16460319  0.09302384
   0.02224559  0.041287    0.02982809 -0.07113502 -0.05330861  0.06119866
   0.08350473  0.00083565  0.04921522  0.12629478  0.15744922  0.01653308
   0.10844767  0.09485468  0.06504886  0.04872335  0.04495898  0.20152311
   0.06095563  0.07394866  0.08442672  0.00658129 -0.00195374  0.06915589
   0.10027494 -0.0199024   0.1178626   0.09493703 -0.0314262   0.09718867
   0.16465886  0.11164557  0.057093   -0.05668416  0.0598534   0.0947988
   0.01586845  0.2905731   0.10190286  0.07017177 -0.03474593 -0.04960238
   0.06197121  0.03378095  0.05033751  0.07628875 -0.03196226  0.01790175
   0.02582292  0.05713322  0.02025939 -0.07417469  0.07990061  0.1430202
   0.01394368  0.03867938  0.17762525  0.05153021  0.02843447  0.05147684
   0.07188881 -0.09818197  0.0327184   0.08539287  0.03850752  0.0367467
   0.00903257  0.06096797  0.15008837 -0.07596303  0.12354556  0.11336637
   0.13853309  0.10978121  0.08423418  0.0775767   0.25247514 -0.00756248
   0.01468689 -0.0169597   0.08756199  0.0436664   0.07208408  0.13503772
   0.22762464  0.09307556 -0.02953091  0.05892374  0.04257631  0.1297489
   0.04887218  0.02416046  0.13043362  0.08145509  0.12972298  0.06671023
   0.07613737  0.2876393   0.11124071  0.31014428 -0.08186756  0.03168055
   0.14494969  0.05784057 -0.03664997  0.12652415  0.07283732  0.00955114
   0.10603567  0.05931715  0.10495039  0.02688008  0.05060683  0.07900141
   0.07546126  0.04657254  0.00862448  0.13064791  0.1426852   0.10436388
   0.08428382  0.06406693  0.07677576  0.0024125   0.03913575  0.05877345
   0.02484506  0.12242682  0.07331295  0.1249902   0.05795923  0.08021546
   0.03745992 -0.01759406  0.08339326  0.35005626  0.01305195  0.04905099
   0.08767372  0.16585675 -0.01831419  0.08616876  0.01169497  0.20300159
  -0.01789821  0.08708322 -0.02764176  0.16508971 -0.07211171  0.06136155
  -0.05413954  0.14148693  0.11102526  0.07823347  0.06897547  0.07519278
   0.05351535  0.17232555  0.00308533  0.13356535  0.0273879   0.03002803
   0.01193923  0.1259836   0.08074921  0.05674962  0.02630555  0.04146479
   0.07411101  0.03381582  0.0363529   0.03083737  0.05196236  0.12383795
   0.08878949 -0.00481855 -0.03039601  0.08474439  0.06018826  0.00678912
   0.056994   -0.01088365  0.16020802  0.137885    0.03858656  0.10979978
  -0.0014006   0.0926334   0.04031999  0.08645671  0.10267658 -0.05962595
   0.12279805  0.04930629  0.21559848  0.06528299  0.0476121   0.03173974
   0.1727989   0.13368236  0.02820434 -0.0372982 ]]

Input Gate Recurrent Kernel:
[[ 0.00552515  0.00878847 -0.04423853 ... -0.02786129 -0.00778351
   0.00811216]
 [ 0.03842999  0.0170803   0.02238194 ...  0.04282028  0.01341472
   0.01268503]
 [-0.01901808  0.01719256 -0.01534432 ...  0.04837442  0.01962667
   0.01853928]
 ...
 [-0.03060156 -0.02721231  0.01140075 ...  0.04276164  0.05752952
   0.01448803]
 [ 0.04343586  0.00638809  0.02240381 ...  0.01616165  0.06322119
  -0.04720176]
 [-0.04308143  0.04345938  0.01609308 ... -0.02118456  0.02185763
   0.01282313]]

Forget Gate Recurrent Kernel:
[[-0.00304668  0.0270612   0.01076026 ...  0.00208733 -0.01589044
  -0.02426101]
 [-0.0337267  -0.02988932 -0.03600224 ... -0.01290419  0.02892876
   0.01405209]
 [ 0.01082238 -0.00042657 -0.04541807 ... -0.02053242 -0.0118915
   0.05977555]
 ...
 [-0.00191284  0.03147039 -0.02070463 ...  0.03442596  0.00637756
  -0.03272094]
 [ 0.02374223  0.00761598 -0.02467766 ... -0.07908335  0.02371801
   0.05126426]
 [ 0.02503278 -0.04029795  0.0302709  ...  0.00036598  0.03915951
   0.01368053]]

Cell Gate Recurrent Kernel:
[[-0.0855325  -0.00606412  0.00497237 ... -0.00901813 -0.00768676
  -0.03622024]
 [-0.04331941 -0.01089661  0.01439672 ... -0.06193498 -0.01230455
   0.07619292]
 [ 0.02347416 -0.05017406 -0.03630279 ...  0.01753342  0.01855757
  -0.02982925]
 ...
 [ 0.02725768  0.00669417 -0.00623456 ...  0.02263954 -0.02140343
  -0.03460357]
 [ 0.03858566  0.01789871 -0.01953382 ...  0.05679071  0.00737562
   0.04261839]
 [-0.04099446 -0.01481287 -0.04987949 ...  0.06118879  0.02087768
  -0.04638113]]

Output Gate Recurrent Kernel:
[[-0.00381037  0.00607819  0.01283078 ... -0.01293162 -0.01860527
  -0.00213238]
 [ 0.00848152  0.08530455 -0.00941157 ... -0.05061217  0.00250931
   0.02920404]
 [ 0.00219397 -0.01878642 -0.01931497 ...  0.03164872  0.00889453
  -0.03664515]
 ...
 [ 0.00978891 -0.02807373  0.01607335 ...  0.00945351 -0.02008158
  -0.0075234 ]
 [-0.03794293 -0.0084511  -0.00617592 ...  0.08238373 -0.0227093
   0.01370046]
 [ 0.0652215   0.029205    0.00381913 ... -0.03077599 -0.04745291
  -0.01959758]]
