[LSTM Bias]
Input Gate Bias:
[ 1.75457802e-02  3.13135907e-02  1.24276271e-02 -5.30305915e-02
 -3.22343148e-02 -4.71067876e-02 -2.01591314e-03 -4.22105752e-02
 -3.04533076e-02  1.11607336e-01  2.02835277e-02 -3.81375290e-02
  2.14758478e-02  1.49558838e-02 -1.06997816e-02 -3.79647152e-03
  1.13006700e-02 -4.25863937e-02 -1.01904152e-02  5.53118112e-03
  2.07736455e-02 -6.27518818e-02 -5.82135953e-02 -3.22146080e-02
 -2.55971197e-02 -3.26816887e-02  2.07693186e-02 -3.14938277e-02
 -5.63545562e-02 -7.72654191e-02 -1.77732563e-05 -3.53719946e-03
 -3.29425111e-02 -7.20561016e-04 -2.44792015e-03 -4.97511849e-02
  1.41949998e-02 -4.33981679e-02  1.22414650e-02  2.35200599e-02
 -7.57444045e-03 -2.68677231e-02 -2.16860371e-03 -1.41103426e-02
  1.29703330e-02 -2.48830132e-02  1.88109316e-02  1.05910730e-02
  3.08628492e-02  3.52204889e-02 -5.63774295e-02  1.35072106e-02
 -1.53758461e-02 -9.73891653e-03  1.91577952e-02 -8.24745465e-03
 -4.85010743e-02 -5.40025234e-02 -4.28837910e-02  1.67744923e-02
 -7.42637971e-03  8.13336577e-04 -6.85871989e-02 -9.51984599e-02
  4.86764610e-02  1.11255534e-02  6.16963906e-03 -3.79829556e-02
  9.68134124e-03 -1.52819855e-02  1.30867679e-02 -4.02239151e-02
  1.15766805e-02 -3.85988802e-02 -3.15736569e-02  9.22245625e-03
 -2.11515930e-02 -9.41234455e-03 -1.73026472e-02 -8.51019460e-04
  2.06494723e-02 -5.05094230e-03 -2.91580353e-02  6.78376630e-02
  4.62949648e-03  2.40271781e-02 -4.52429615e-02 -4.78014052e-02
 -3.65998992e-03  1.20477518e-02  3.03340843e-03  1.13872334e-01
  4.80745919e-02  1.17536336e-02 -2.58943737e-02 -7.56321549e-02
  1.31603489e-02 -8.33982378e-02 -4.89028506e-02  1.91837195e-02
 -3.77712399e-02  1.07109444e-02 -4.20541987e-02 -4.34581414e-02
 -3.23033705e-02 -1.89147461e-02  1.21504134e-02  2.53806673e-02
  1.29936989e-02 -1.80508588e-02 -6.48238882e-03 -3.53817157e-02
  1.56843364e-02  1.98972784e-02 -4.74716686e-02 -3.45658846e-02
 -3.16151530e-02  6.47607492e-03  1.24198161e-02 -5.30024730e-02
 -3.31087820e-02  6.83772424e-03  3.60879977e-03 -2.68152896e-02
  5.49992472e-02  2.09854823e-03  6.55430928e-02  2.77135009e-03
  2.36333404e-02  2.25904286e-02  1.46664545e-01 -5.41236885e-02
 -5.82103170e-02 -2.61089043e-03  2.46607251e-02 -2.62510758e-02
 -3.98849845e-02  1.07679795e-03  8.68239924e-02  3.36845405e-03
 -4.00640778e-02  2.93779038e-02 -5.76937199e-02  2.89377347e-02
 -4.91903983e-02 -5.41133992e-02  1.77199282e-02 -8.79795849e-03
  2.53063925e-02 -4.43047732e-02  1.34405447e-02  4.13629189e-02
 -7.67294466e-02  8.82021636e-02 -4.50763516e-02  2.14386713e-02
  4.73558297e-03 -3.53206880e-02 -1.80760436e-02 -1.17955999e-02
 -3.79520766e-02  1.97769720e-02  6.00298215e-03 -3.81062739e-02
  2.16236021e-02  4.29226942e-02  8.96003563e-03  5.19413687e-03
 -2.70385295e-02 -2.02573407e-02 -4.60383715e-03 -5.65459905e-03
 -6.18488062e-03  1.22641586e-02  1.12919072e-02  2.89587374e-03
 -2.09971238e-02  1.36156883e-02 -4.21506278e-02  2.84847524e-03
  1.32096466e-02 -7.21939327e-03  1.50994835e-02  8.12140107e-03
  1.60131287e-02 -5.23597635e-02  9.38964449e-03 -5.00162989e-02
 -2.75769196e-02  1.89084068e-01 -3.96176567e-03 -2.89642960e-02
 -5.49594313e-02  1.68907866e-02 -1.07856365e-02  7.09831044e-02
 -3.05415271e-03  3.77433817e-03 -3.35739255e-02  2.30719782e-02
 -3.48984227e-02  1.07390493e-01 -3.36109847e-02 -6.34498848e-03
 -3.46165001e-02 -1.18506420e-02 -4.02672403e-02 -4.18613926e-02
  3.83235365e-02 -3.50221992e-02  1.87050439e-02  5.61002232e-02
 -5.06759472e-02  2.53759115e-03 -1.54905533e-03  8.90804175e-03
  1.93636287e-02  1.83322262e-02 -1.99203123e-03 -3.30898464e-02
 -9.32686310e-03  2.30139215e-02  3.17233838e-02  2.76029482e-03
 -3.12043447e-02  5.76674007e-03  4.39775130e-03  2.76053566e-02
  3.92148159e-02 -5.35835065e-02 -9.03324410e-03 -9.51440074e-04
 -3.28489132e-02 -2.53869803e-04  6.39530132e-03 -4.28815223e-02
  1.24073299e-02  4.15918119e-02 -4.01334316e-02  5.74973456e-06
  3.58767994e-03  1.58191212e-02  6.78323861e-03 -1.12672979e-02
 -1.21047972e-02 -3.76759819e-03  8.06971639e-03 -2.43823584e-02
  1.36730485e-02 -4.08561016e-03 -5.74300401e-02  1.32988878e-02
  2.10184082e-02 -3.53947445e-03  2.64546159e-03 -1.84345525e-02]

Forget Gate Bias:
[0.99186045 0.96282566 0.99167055 0.9208754  0.9736611  0.9519238
 0.9865569  0.96964425 0.97421014 0.82819474 0.9829132  0.95338637
 0.96785283 0.9806362  0.94400907 0.9895693  0.9911992  0.9438425
 0.9891563  0.9844251  0.9850222  0.8932967  0.93835485 0.9651868
 0.9728924  0.96538806 0.99099207 0.9708303  0.90083957 0.9010208
 0.874826   0.96220505 0.94891065 0.97129965 0.9695707  0.9483575
 0.99245095 0.94987446 0.9900256  0.9963111  0.97225386 0.95622975
 0.9969679  0.92764264 0.9843549  0.975541   0.9710959  0.9905441
 0.9224285  0.97040606 0.8741791  0.9952237  0.9337015  0.9586353
 0.99241847 0.92874223 0.9117185  0.93946165 0.9635464  0.97423905
 0.9766791  0.98228335 0.9199822  0.84602857 0.9534003  0.9950411
 0.9919588  0.9471593  0.99436146 0.98129433 1.0001018  0.93548346
 0.9820649  0.9647285  0.9668306  0.98515505 0.9781798  0.98564076
 0.9153958  0.9863221  0.9852413  0.9848437  0.9742197  0.8602028
 0.9394733  0.96102047 0.95771223 0.94295955 0.99387515 0.9650213
 0.9915003  0.8660422  0.9496075  0.9898354  0.9615203  0.95035934
 0.9791185  0.9040479  0.95307165 0.9869949  0.96264327 0.9828875
 0.95573044 0.95538944 0.97050077 0.98026097 0.9430941  0.9457524
 0.994108   0.9638486  0.96215934 0.92075354 0.95331544 0.9801252
 0.896959   0.94346106 0.9276627  0.9935788  0.98815286 0.9341494
 0.97451705 1.0021846  0.97178334 0.9392119  0.93564034 0.9976642
 0.9519041  0.99210906 0.98229104 0.93509245 0.8966281  0.932379
 0.9341684  0.96530837 0.9430996  0.97716075 0.9465958  0.96172875
 0.8371277  0.89666814 0.9658202  0.97912467 0.9411675  0.96017677
 0.9412347  0.8364209  0.98822236 0.9476743  0.9763259  0.90769345
 0.984904   0.8567789  0.90760326 0.87319916 0.9458999  0.9808762
 0.9381746  0.9528675  0.9744937  0.9072223  0.96848124 0.9856721
 0.99648166 0.96239805 0.9918865  0.975718   0.99038494 0.9827768
 0.975938   0.9439933  0.98021096 0.97830284 0.9610698  1.0009937
 0.9936493  0.9919262  0.9594341  0.9974738  0.92788374 0.9992929
 0.9953709  0.95454764 0.98956686 0.9702249  0.98922366 0.94899166
 0.99437326 0.88464195 0.9165276  0.8052634  0.9781178  0.97494483
 0.9288475  0.9456636  0.96422786 0.9297165  0.9944189  0.82578164
 0.9580267  0.9896638  0.9582833  0.90681523 0.96693087 0.98119605
 0.9730146  0.94088984 0.9147996  0.9358557  0.9832753  0.9560218
 0.98256177 0.97869    0.92750907 0.9677638  0.9804734  0.9730134
 0.99085003 0.9943445  0.994133   0.9587935  0.9892033  0.9782264
 0.9734929  0.9855511  0.96382654 0.99304205 0.9921838  0.9688598
 0.9738222  0.9406895  0.99170136 0.99665046 0.9503637  0.9819652
 0.99080557 0.9573825  0.959013   0.9824645  0.94273746 0.98155385
 0.9932844  0.9692416  0.9871819  0.97946686 0.93340516 0.989769
 0.984013   0.9807212  0.7828669  0.93904144 0.9474303  0.9354585
 0.95916575 0.97371596 1.0013727  0.9789919 ]

Cell Gate Bias:
[ 1.51981348e-02 -1.47984494e-02 -1.00622457e-02  1.52442576e-02
 -1.89459026e-02 -1.24110673e-02 -1.69138866e-03 -1.86410937e-02
  4.82312031e-03  2.81096846e-02 -1.02737080e-02  7.34693697e-03
  2.60470547e-02 -1.45413196e-02  1.72211751e-02 -1.83018041e-03
  9.70708113e-03 -1.77619085e-02  6.36229571e-03 -5.70932496e-03
  6.01309910e-03 -5.94420079e-03  1.76974609e-02 -1.68463495e-02
 -7.24569336e-03  1.16205690e-02  1.14216246e-02  1.17999138e-02
  1.54205766e-02 -3.14402231e-03  1.63541932e-03 -1.22528300e-02
  2.73729162e-03 -3.52535350e-03  1.51407989e-02  1.34785967e-02
 -1.15453051e-02 -1.02642495e-02 -5.34920162e-03  1.09924925e-02
  4.01840312e-03 -2.50752340e-03  1.81455798e-02  2.58072070e-03
 -1.39085744e-02 -1.40409367e-02 -1.06877824e-02 -1.24405669e-02
 -1.76250597e-03 -7.06068752e-03 -3.62176535e-04 -1.23643307e-02
  3.47647956e-03  1.09130202e-03  2.35487372e-02  1.09326933e-03
  4.21834178e-03  1.03030810e-02  1.49206975e-02  7.20273564e-03
  1.09064849e-02 -2.45968476e-02  1.13258455e-02 -2.15433701e-03
 -4.81627136e-03  9.31881368e-03  1.11247571e-02 -1.31645584e-02
 -1.45119559e-02  7.84060266e-03 -5.59427496e-03  1.06646782e-02
 -7.07693584e-03  1.14172623e-02 -7.97112007e-03  7.80335627e-03
 -1.20441383e-02 -5.22829301e-04 -5.21038019e-04  3.02908733e-03
 -8.03043880e-03 -1.05301826e-03 -1.83209088e-02 -1.77045129e-02
 -3.24271224e-03 -2.75889467e-02 -1.07688010e-02 -1.08613223e-02
  4.48002666e-03  7.93733355e-03 -5.72147826e-03  6.15936052e-03
 -4.92320675e-03  1.26336841e-02 -7.53808161e-03 -3.17677949e-03
 -7.43780984e-03 -8.40655342e-03  1.24434931e-02 -7.91381206e-03
 -9.22665186e-03 -8.81512091e-03  1.25966379e-02  1.35475481e-02
 -1.23260533e-02 -2.28987522e-02  7.27020483e-03  2.21145581e-02
 -1.02522774e-02  4.99575585e-03 -2.69026635e-03 -2.39029191e-02
 -5.86248841e-03  7.24882493e-03 -9.79977567e-03 -1.52625497e-02
  3.44617502e-03 -1.18329739e-02  7.01081939e-03  1.24627333e-02
 -1.69476233e-02 -1.35796769e-02  4.20113932e-03 -1.16430549e-02
 -1.08585656e-02 -9.98890959e-03 -5.72365336e-03  5.74165303e-03
  4.01558820e-03 -1.87174510e-02 -7.45600276e-03 -1.13156196e-02
 -1.55181438e-02 -1.09262373e-02  7.19003659e-03 -7.21900351e-03
  7.51680695e-03 -5.07459918e-04  1.65765884e-03  6.98868302e-04
 -1.99655723e-02  1.46622816e-02  1.48771256e-02  4.68756398e-03
 -2.04397812e-02  1.09096710e-02 -1.18262880e-02  2.66032701e-04
 -1.00700492e-02  6.77627791e-03 -1.06221698e-02  2.81928107e-03
  8.20932537e-03  4.99529066e-03  1.60200037e-02  9.95828584e-03
  4.08416614e-03  1.44779608e-02  4.31598019e-04 -7.02533638e-03
  1.10561633e-02  1.40017373e-02 -9.61924158e-03  1.80217028e-02
 -1.36002712e-02  1.51013909e-02 -1.26520060e-02  7.34549772e-04
 -1.22177796e-02  6.45984430e-03 -2.00485205e-03  1.38437273e-02
  4.66316892e-03  1.05951168e-02  1.49164358e-02  1.22011583e-02
 -1.23829814e-02  1.07498523e-02 -2.04346143e-03  1.23534817e-02
  1.35037741e-02  1.10257359e-03  6.92527788e-03  3.55742220e-03
 -1.03732953e-02  8.73275567e-03 -1.10328505e-02 -1.73003525e-02
  1.68038637e-03  4.61314619e-03  2.47816741e-02 -1.78011209e-02
 -5.90702053e-03 -5.37883956e-03 -2.09912397e-02 -2.23930124e-02
 -1.54479034e-03 -1.17324875e-03 -1.00619383e-02 -8.73521715e-03
  1.37920938e-02 -8.84127151e-03  1.23917991e-02  2.41248606e-04
  1.13452915e-02  1.88179817e-02  3.48623749e-03 -6.41086511e-03
  1.48718990e-02  6.98028924e-03  1.25371804e-02 -1.54861864e-02
 -1.28272502e-02  2.25309897e-02  2.40396988e-02  6.76940242e-03
 -8.21177009e-03  9.97275859e-03  7.44293164e-03  4.90439171e-03
 -1.04215192e-02  9.98978037e-03 -1.05801765e-02 -2.13272348e-02
  5.11878124e-03 -7.84491561e-03 -9.07490216e-03  7.03990227e-03
  1.30445827e-02 -5.34679601e-03 -3.64095066e-03  1.31504657e-02
 -5.80784818e-03  5.60043100e-03  4.36538411e-03  1.91914588e-02
 -3.11964354e-03 -1.16026523e-02 -5.24471328e-03 -4.48005646e-03
  1.03150308e-02 -2.25676615e-02 -8.86312500e-03 -2.52984278e-03
  5.05743502e-03 -1.80177893e-02  6.78936340e-06 -1.22762630e-02
 -2.60394881e-03  2.44123148e-05 -1.50291733e-02 -1.71822850e-02
  1.64681319e-02  2.36126874e-03 -8.73118266e-03  2.97760461e-02]

Output Gate Bias:
[ 1.75449736e-02  3.08746211e-02  1.06410151e-02 -5.20096980e-02
 -3.20762321e-02 -4.54305783e-02 -2.71108351e-03 -4.11537364e-02
 -3.19252498e-02  1.05833717e-01  1.97846349e-02 -3.80866788e-02
  2.23214310e-02  1.48317358e-02 -9.97775048e-03 -3.24103213e-03
  1.05237653e-02 -4.15002257e-02 -1.04949065e-02  5.53754484e-03
  2.06979122e-02 -6.32933304e-02 -5.69331832e-02 -3.13734040e-02
 -2.55021527e-02 -3.19514722e-02  2.08377652e-02 -3.02810650e-02
 -5.73604703e-02 -8.15065205e-02 -3.94170545e-03 -4.76655364e-03
 -3.27705964e-02 -1.11710164e-03 -4.89348033e-03 -4.86652218e-02
  1.50053520e-02 -4.27088775e-02  1.03871459e-02  2.33407132e-02
 -7.28267804e-03 -2.90980693e-02 -2.10312894e-03 -1.45801213e-02
  1.19026275e-02 -2.48306599e-02  1.62198637e-02  9.62457340e-03
  2.90080085e-02  3.31649445e-02 -6.54183179e-02  1.26610715e-02
 -1.95575971e-02 -1.13005936e-02  1.91008002e-02 -9.08822753e-03
 -4.64914441e-02 -5.26308194e-02 -4.14013192e-02  1.71351098e-02
 -8.71976651e-03  2.61657010e-03 -6.84290454e-02 -1.00568831e-01
  4.44595888e-02  1.07930927e-02  5.55297174e-03 -3.91868390e-02
  8.78805295e-03 -1.46340299e-02  1.27641046e-02 -5.11395223e-02
  1.09894415e-02 -3.93272005e-02 -3.15789506e-02  9.81514063e-03
 -2.06908938e-02 -1.01481546e-02 -1.88275725e-02  7.05527855e-05
  1.86381601e-02 -6.42294995e-03 -2.88357642e-02  6.81519061e-02
  6.30217022e-04  2.16242727e-02 -4.58250195e-02 -4.52796891e-02
 -4.42531239e-03  1.19144432e-02  3.09897517e-03  1.03632979e-01
  4.64600250e-02  1.05740009e-02 -2.45495234e-02 -7.35319182e-02
  1.34160360e-02 -8.38877410e-02 -5.03392629e-02  1.75335463e-02
 -3.66587602e-02  1.05792917e-02 -4.26869057e-02 -4.54912744e-02
 -3.23573239e-02 -1.87821239e-02  1.05849300e-02  2.30423044e-02
  1.35503132e-02 -1.78157352e-02 -1.09762456e-02 -3.54347676e-02
  1.59562193e-02  1.96820870e-02 -4.83846217e-02 -3.43383178e-02
 -3.08840331e-02  4.79238434e-03  1.24488920e-02 -5.20200767e-02
 -3.30013633e-02  5.88083826e-03  6.82327780e-04 -2.67937519e-02
  5.36965020e-02  4.91817191e-04  6.20462447e-02  1.17869768e-03
  2.27028914e-02  2.18661483e-02  1.40848696e-01 -5.25200069e-02
 -5.92674874e-02 -1.89456635e-03  2.26595569e-02 -2.62978151e-02
 -4.04799953e-02 -9.99679905e-04  7.70288929e-02  2.65443069e-03
 -3.95218879e-02  2.85182316e-02 -5.76162487e-02  2.73943581e-02
 -4.97223474e-02 -5.35160638e-02  1.61775760e-02 -9.68241692e-03
  2.40703020e-02 -4.50255945e-02  1.16197709e-02  2.72854622e-02
 -8.21617991e-02  7.55531415e-02 -4.40816432e-02  2.13956572e-02
  1.31802401e-03 -3.58921550e-02 -1.75948385e-02 -1.30843977e-02
 -3.91826890e-02  2.07134262e-02  4.71776165e-03 -3.85890305e-02
  1.93785448e-02  4.28644568e-02  8.17992259e-03  3.81121784e-03
 -2.85015851e-02 -2.01376062e-02 -4.33327956e-03 -8.75788461e-03
 -9.77743510e-03  1.04313884e-02  1.06906816e-02  2.01017060e-03
 -2.23331451e-02  1.34623339e-02 -4.14332598e-02  1.93031703e-03
  1.30074071e-02 -9.25944187e-03  1.45789040e-02  5.02071064e-03
  1.56724546e-02 -5.35595529e-02  8.87961127e-03 -4.97474447e-02
 -3.00268363e-02  1.72011241e-01 -3.99275357e-03 -2.97620408e-02
 -5.64223118e-02  1.34347901e-02 -1.08047500e-02  7.02784285e-02
 -3.07592680e-03 -2.43220548e-03 -3.29649709e-02  2.18315478e-02
 -3.46035995e-02  1.04667939e-01 -3.18493210e-02 -7.79583585e-03
 -3.36350650e-02 -1.60281323e-02 -4.53314222e-02 -4.21184562e-02
  3.88421044e-02 -3.58303413e-02  1.82405598e-02  5.29423170e-02
 -4.97378595e-02 -3.18800623e-04 -1.52101775e-03  8.60406552e-03
  2.00649723e-02  1.59583576e-02 -3.34100239e-03 -3.33999693e-02
 -9.01035313e-03  2.28938852e-02  3.17495205e-02  2.47157109e-03
 -3.07714026e-02  5.41518535e-03  3.83005594e-03  2.54401173e-02
  3.87527570e-02 -5.24532571e-02 -8.65264516e-03 -1.21538504e-03
 -3.30589041e-02  2.17254710e-04  5.77678578e-03 -4.31034639e-02
  9.23075620e-03  4.00788598e-02 -4.04240489e-02 -1.33000175e-03
  3.66939651e-03  1.49125140e-02  6.15689531e-03 -1.31624397e-02
 -1.36802820e-02 -3.45883775e-03  6.03747787e-03 -2.45679375e-02
  3.65731469e-03 -5.68167306e-03 -5.68137951e-02  1.48973325e-02
  1.59823075e-02 -6.11717999e-03  1.98087865e-03 -1.81445964e-02]
