[LSTM Weights]
Input Gate Kernel:
[[ 0.0196973  0.0403149 -0.0089486  0.0412234 -0.0346007  0.0182692 -0.0270762 -0.0426897 -0.0578614  0.1455188
   0.0866785 -0.0709503  0.1115619  0.0021776  0.0405518 -0.029362  -0.0385406  0.0398027  0.0379817  0.0029871
   0.0545024 -0.0231716 -0.0360671  0.0269138 -0.0659866  0.0127635  0.0772865  0.0227534 -0.0698057 -0.0640477
   0.0467647  0.0106745  0.0712798  0.0494047  0.0268137 -0.0330085  0.0802992 -0.0793616  0.0177133 -0.0078796
   0.0123645 -0.072762  -0.0663602  0.0196546  0.0825543 -0.0350681  0.0533001  0.075437   0.0171569  0.0315789
   0.1098759  0.1101629  0.0372644 -0.0082331 -0.0021308 -0.0301256  0.0609375  0.0369403  0.0284462  0.1108224
   0.0139371  0.1111854  0.0268485 -0.0410951  0.045686   0.0504772  0.1079493  0.0151012 -0.0235358 -0.0037264
  -0.0118688  0.0070894  0.0647164 -0.0396957  0.0515657  0.0197128 -0.0349393 -0.0207096  0.0829328  0.0946104
   0.0132087  0.0152751 -0.012067   0.1002625  0.0645928  0.0130918  0.0161451  0.0219108 -0.0016826  0.1327664
   0.0547785  0.1072816  0.0337829 -0.0080761  0.0384256  0.0220323  0.1262463  0.0076195 -0.0659997 -0.0178733
  -0.0358234  0.0524941 -0.0083415 -0.0620249  0.0241248 -0.0687373 -0.0048995  0.0774928  0.0907663  0.012067
   0.1026661 -0.0316863  0.067775   0.0888932  0.0315342 -0.1020717  0.0548774 -0.0123501  0.0767878  0.0112501
  -0.0503748  0.0201362  0.0806755  0.0445119  0.1560864  0.0002415  0.0404804  0.0233852  0.0681613 -0.0515183
   0.0958448  0.0020304 -0.0447822  0.0813138  0.0380783 -0.0608349  0.0185114  0.0911876  0.1379204  0.0774437
  -0.0221295  0.0763438  0.0387999  0.1504778 -0.0485695 -0.0208728  0.1038117  0.0578628  0.1002895 -0.0239871
  -0.0288183  0.0452519 -0.0786229  0.0824628 -0.03342    0.0642243  0.0153372  0.0185635 -0.022243   0.1137918
  -0.0707574  0.0673157  0.0007436  0.0266403 -0.0046057  0.0226029  0.0052304 -0.0478528 -0.0892151  0.0296098
   0.0286163 -0.0188514 -0.0241274 -0.0071226  0.07372    0.0094616 -0.079358   0.0400388  0.0305971 -0.0019513
  -0.0175281  0.0240244  0.0574555 -0.0000169  0.0408909 -0.0675861  0.0350238 -0.0123424 -0.0279438  0.1887527
   0.0119862 -0.0442923  0.02234    0.0489961  0.0276868  0.0058548  0.0394391  0.043062  -0.0826801  0.0328899
  -0.0692287  0.1546526  0.0472853 -0.043595  -0.0069462 -0.0355915 -0.0341806  0.0379605  0.1154997  0.033717
   0.0709042  0.0336019 -0.0140862  0.0040979  0.0105445 -0.0222704  0.0927851 -0.0256445 -0.0409748  0.0000198
  -0.0393592  0.0761647  0.1313207  0.0506686  0.0393033  0.0093985  0.0460409  0.0523501  0.1326329 -0.0712627
  -0.0537226  0.013428   0.0263039  0.0228693  0.0527961 -0.0874969  0.0991085  0.1109255 -0.0824026  0.0720575
   0.0065713  0.0637319  0.0068362 -0.0293029  0.0096883  0.071519   0.0168752 -0.003411   0.0563239 -0.026271
   0.019655   0.119835   0.0106117  0.0494156 -0.0484693  0.0199327]]

Forget Gate Kernel:
[[ 0.0587631 -0.0286856 -0.0172665 -0.0568313 -0.0708097 -0.0358424 -0.0064358  0.0224796 -0.065934  -0.0479829
   0.0170335 -0.0459761  0.0038424  0.0211062 -0.019964   0.0839963  0.009845  -0.0965408  0.0009892 -0.0377676
   0.072807  -0.0388518  0.0308613 -0.0125466 -0.0237964 -0.0119223  0.0283016 -0.0857431 -0.0449215 -0.0627969
  -0.1066081  0.0583687 -0.0760729  0.0710075 -0.0617134 -0.0988084 -0.0013945 -0.0935073  0.0175667 -0.0333453
  -0.0204384 -0.0752595  0.0561957 -0.0606358  0.0246929  0.0085633 -0.058339  -0.0232725 -0.0785131 -0.0240648
  -0.005642  -0.0017326 -0.0358876 -0.0215487  0.0890739  0.0481244  0.0027412  0.0248044  0.028605  -0.0289252
  -0.0492741 -0.0563989 -0.0492473 -0.0644021  0.0245197 -0.0058126  0.0403209 -0.0790055 -0.0209686 -0.0231391
   0.0472196 -0.0158415  0.0004019  0.0267774 -0.0799948  0.0027371  0.0101993 -0.0672455 -0.0197695 -0.0374176
   0.004804   0.0125164 -0.0848877 -0.0169787 -0.0147514  0.0561224 -0.0272531 -0.0853349  0.0384691  0.056778
  -0.0164642 -0.052456   0.0216131  0.0338296  0.0024568  0.0553656 -0.005563   0.0337221 -0.0513933  0.0368594
   0.009204   0.0251198  0.0249042 -0.0748118 -0.0587479 -0.0759367  0.0015066  0.0164241  0.0361788  0.0034173
  -0.035121  -0.0684769  0.018704  -0.0544313 -0.0400006 -0.0199562 -0.0888796  0.0431496  0.0480799 -0.0735757
   0.0226827 -0.0404318 -0.0492197  0.0155082 -0.0413546 -0.0410295 -0.0602549 -0.009435  -0.0334952 -0.0875766
   0.0109551 -0.079863  -0.091984   0.0040496 -0.035056  -0.0010604 -0.0089596  0.0205501 -0.0614829  0.0041848
   0.0294499 -0.0135741 -0.0563739 -0.0240114 -0.0388996 -0.0469963 -0.0052366 -0.0510157 -0.0632837 -0.0937763
   0.0190951  0.0336297  0.0504481 -0.0163967 -0.0966937 -0.0180837 -0.0524327 -0.0344283  0.0649556  0.015172
   0.0076175  0.0834828  0.0541074 -0.0755552 -0.0357674 -0.0415164  0.0526802  0.0029107  0.0059253  0.0808324
   0.0584904  0.0849482  0.0633989 -0.0477219 -0.0225183 -0.0200297 -0.000691   0.0243133  0.0387979  0.0571655
  -0.0492475 -0.0263075  0.0815684  0.0493416 -0.014303  -0.058561  -0.059703  -0.1160401 -0.0060455 -0.0296179
   0.0511999 -0.0786642 -0.0990821 -0.0672265 -0.0060857  0.0224209  0.0497771 -0.0135497 -0.0397936 -0.0160773
  -0.0001588 -0.077469  -0.0627795  0.0274745 -0.0095247  0.014511  -0.06415   -0.0205178 -0.0193065 -0.0511314
   0.0361142  0.0291101 -0.0697547 -0.0193348 -0.0741408 -0.0038523 -0.0286322  0.0017324 -0.0400523  0.0194169
  -0.0804128 -0.0390353  0.0694192  0.0338312 -0.0453708 -0.0420907  0.0730951 -0.0696951  0.0910799 -0.0365585
   0.0129382  0.0453045 -0.0637123 -0.0318057  0.076498  -0.0789873 -0.0008288  0.0069812 -0.0483008  0.0316215
  -0.0462956  0.0527425 -0.0099597 -0.0327049 -0.0644491 -0.0626394  0.0623927 -0.0129986 -0.1073165 -0.059008
  -0.0785662 -0.0387551  0.0804079  0.0058632  0.0116169  0.0348043]]

Cell Gate Kernel:
[[-0.0989102  0.1103042  0.091596  -0.0132834  0.0533578  0.0082842  0.0366013  0.0527571 -0.0182481 -0.159789
   0.0973738 -0.0006608 -0.1053806  0.1048629 -0.0914065  0.0419002 -0.1002038  0.0219153  0.0167113  0.072289
  -0.0965815 -0.0161701 -0.0343723  0.016525   0.0222791 -0.001891  -0.1194321 -0.0365238 -0.0218677 -0.005168
   0.0735499  0.0850181  0.0249219  0.0652536 -0.0788787 -0.0286728  0.1090833 -0.0013537  0.0758807 -0.1154759
   0.0326481  0.0434202 -0.0804581  0.0458108  0.1028027  0.0061236  0.1028132  0.1014479  0.084826   0.0810358
   0.0802099  0.1162777 -0.0597981  0.0358933 -0.1146778  0.0630232  0.0213358 -0.036423  -0.039533  -0.084816
  -0.0728648  0.1018824  0.002565  -0.0543337  0.0961019 -0.1059327 -0.0870873  0.0067844  0.1076241 -0.0290762
   0.0878944  0.0047237  0.1005965 -0.0322464  0.0084607 -0.077523   0.0199417 -0.0316959  0.0822506 -0.0617816
   0.0896821  0.0372497  0.047255   0.1303233 -0.0796588  0.1238643  0.0271138  0.0061073 -0.0402893 -0.0720275
   0.0599179 -0.1173604  0.0938658 -0.1104866 -0.0049672  0.0178291  0.090041   0.0077477 -0.0306494  0.1220106
   0.0143469  0.0809813 -0.0347954 -0.0285183  0.0485349  0.0619211 -0.0804172 -0.1239348  0.0957696  0.0423593
   0.0621623  0.0297221  0.0846705 -0.091417  -0.0292588  0.0308634  0.0282914  0.0884098 -0.0795126  0.0080734
   0.0415795  0.1071158 -0.0637443  0.0036306  0.1259091  0.0882604  0.1065036 -0.0673492 -0.0908159  0.0689741
   0.132101  -0.0001113  0.0237732  0.0894346 -0.104564   0.0054503  0.0096576  0.0637217  0.076859  -0.0726397
   0.0428221 -0.1259232 -0.0317391 -0.0873682  0.0457529  0.048779   0.1173705 -0.0516106  0.1046118  0.0420174
   0.1016207 -0.0824183  0.0004354 -0.1050699 -0.032383  -0.0952768 -0.0627854 -0.0369564  0.0320426  0.0924492
  -0.0261593 -0.1148123  0.0850109 -0.0555076  0.1244451 -0.1316466  0.1078577 -0.0723905  0.0287545  0.0454721
   0.0501567 -0.0706697 -0.0597985 -0.0979472 -0.1082634 -0.0822199  0.0437708 -0.1180883 -0.0380255 -0.086742
  -0.1051114 -0.0521856 -0.0833783 -0.0929647  0.0952845 -0.0110854  0.1120488  0.0065191  0.0405434 -0.1126529
  -0.0793128  0.0573867 -0.0175755  0.093383   0.0796497  0.1108688 -0.032475  -0.0692375  0.0086764  0.1015778
  -0.0388937  0.0948555 -0.0348444 -0.0406291 -0.0425694 -0.0902547  0.0287443 -0.0198419 -0.1122665  0.0039707
  -0.1176616  0.1266904  0.0060756 -0.1058875 -0.0885843 -0.0834288  0.0946468 -0.1065856 -0.0707615  0.0197237
   0.0327086 -0.1140443  0.120766   0.1046281  0.0120339  0.0824539  0.09431   -0.0919434 -0.1186579  0.0039867
  -0.0199571 -0.0732078 -0.0202702 -0.0622541 -0.0800274 -0.0357853  0.0738479  0.1256753 -0.0244361  0.0633273
  -0.0759148  0.1099192  0.0866657 -0.0346589 -0.077016   0.1011425 -0.0747609  0.0336067 -0.0930387  0.0600217
   0.025092   0.0987717 -0.1114576 -0.0472404  0.0750201 -0.0753795]]

Output Gate Kernel:
[[ 0.0179731  0.0658521  0.1065393 -0.0085568  0.0331547 -0.0401743  0.0611994 -0.0824416  0.049875   0.2434107
   0.0832618 -0.0195847  0.0226243  0.0390448  0.0241972 -0.0376265  0.0219018 -0.0205927  0.0631421  0.0141847
   0.0553159  0.0569941 -0.0700412 -0.0141797 -0.0038768  0.0017391  0.0023155 -0.03931    0.0363078  0.0798115
   0.1359951  0.0804601  0.0406026  0.0587432  0.1329502 -0.0489725 -0.0252053 -0.0433944  0.1112256  0.0248311
   0.0101652  0.1032663  0.0128702  0.0589185  0.1044025  0.0349242  0.1504223  0.1026521  0.0846912  0.1028142
   0.2399586  0.1095423  0.1646032  0.0930238  0.0222456  0.041287   0.0298281 -0.071135  -0.0533086  0.0611987
   0.0835047  0.0008357  0.0492152  0.1262948  0.1574492  0.0165331  0.1084477  0.0948547  0.0650489  0.0487234
   0.044959   0.2015231  0.0609556  0.0739487  0.0844267  0.0065813 -0.0019537  0.0691559  0.1002749 -0.0199024
   0.1178626  0.094937  -0.0314262  0.0971887  0.1646589  0.1116456  0.057093  -0.0566842  0.0598534  0.0947988
   0.0158685  0.2905731  0.1019029  0.0701718 -0.0347459 -0.0496024  0.0619712  0.033781   0.0503375  0.0762888
  -0.0319623  0.0179018  0.0258229  0.0571332  0.0202594 -0.0741747  0.0799006  0.1430202  0.0139437  0.0386794
   0.1776253  0.0515302  0.0284345  0.0514768  0.0718888 -0.098182   0.0327184  0.0853929  0.0385075  0.0367467
   0.0090326  0.060968   0.1500884 -0.075963   0.1235456  0.1133664  0.1385331  0.1097812  0.0842342  0.0775767
   0.2524751 -0.0075625  0.0146869 -0.0169597  0.087562   0.0436664  0.0720841  0.1350377  0.2276246  0.0930756
  -0.0295309  0.0589237  0.0425763  0.1297489  0.0488722  0.0241605  0.1304336  0.0814551  0.129723   0.0667102
   0.0761374  0.2876393  0.1112407  0.3101443 -0.0818676  0.0316806  0.1449497  0.0578406 -0.03665    0.1265242
   0.0728373  0.0095511  0.1060357  0.0593171  0.1049504  0.0268801  0.0506068  0.0790014  0.0754613  0.0465725
   0.0086245  0.1306479  0.1426852  0.1043639  0.0842838  0.0640669  0.0767758  0.0024125  0.0391358  0.0587735
   0.0248451  0.1224268  0.0733129  0.1249902  0.0579592  0.0802155  0.0374599 -0.0175941  0.0833933  0.3500563
   0.0130519  0.049051   0.0876737  0.1658567 -0.0183142  0.0861688  0.011695   0.2030016 -0.0178982  0.0870832
  -0.0276418  0.1650897 -0.0721117  0.0613615 -0.0541395  0.1414869  0.1110253  0.0782335  0.0689755  0.0751928
   0.0535153  0.1723256  0.0030853  0.1335654  0.0273879  0.030028   0.0119392  0.1259836  0.0807492  0.0567496
   0.0263056  0.0414648  0.074111   0.0338158  0.0363529  0.0308374  0.0519624  0.1238379  0.0887895 -0.0048185
  -0.030396   0.0847444  0.0601883  0.0067891  0.056994  -0.0108837  0.160208   0.137885   0.0385866  0.1097998
  -0.0014006  0.0926334  0.04032    0.0864567  0.1026766 -0.0596259  0.122798   0.0493063  0.2155985  0.065283
   0.0476121  0.0317397  0.1727989  0.1336824  0.0282043 -0.0372982]]

Input Gate Recurrent Kernel:
[[ 0.0055252  0.0087885 -0.0442385 ... -0.0278613 -0.0077835  0.0081122]
 [ 0.03843    0.0170803  0.0223819 ...  0.0428203  0.0134147  0.012685 ]
 [-0.0190181  0.0171926 -0.0153443 ...  0.0483744  0.0196267  0.0185393]
 ...
 [-0.0306016 -0.0272123  0.0114007 ...  0.0427616  0.0575295  0.014488 ]
 [ 0.0434359  0.0063881  0.0224038 ...  0.0161616  0.0632212 -0.0472018]
 [-0.0430814  0.0434594  0.0160931 ... -0.0211846  0.0218576  0.0128231]]

Forget Gate Recurrent Kernel:
[[-0.0030467  0.0270612  0.0107603 ...  0.0020873 -0.0158904 -0.024261 ]
 [-0.0337267 -0.0298893 -0.0360022 ... -0.0129042  0.0289288  0.0140521]
 [ 0.0108224 -0.0004266 -0.0454181 ... -0.0205324 -0.0118915  0.0597755]
 ...
 [-0.0019128  0.0314704 -0.0207046 ...  0.034426   0.0063776 -0.0327209]
 [ 0.0237422  0.007616  -0.0246777 ... -0.0790833  0.023718   0.0512643]
 [ 0.0250328 -0.0402979  0.0302709 ...  0.000366   0.0391595  0.0136805]]

Cell Gate Recurrent Kernel:
[[-0.0855325 -0.0060641  0.0049724 ... -0.0090181 -0.0076868 -0.0362202]
 [-0.0433194 -0.0108966  0.0143967 ... -0.061935  -0.0123046  0.0761929]
 [ 0.0234742 -0.0501741 -0.0363028 ...  0.0175334  0.0185576 -0.0298293]
 ...
 [ 0.0272577  0.0066942 -0.0062346 ...  0.0226395 -0.0214034 -0.0346036]
 [ 0.0385857  0.0178987 -0.0195338 ...  0.0567907  0.0073756  0.0426184]
 [-0.0409945 -0.0148129 -0.0498795 ...  0.0611888  0.0208777 -0.0463811]]

Output Gate Recurrent Kernel:
[[-0.0038104  0.0060782  0.0128308 ... -0.0129316 -0.0186053 -0.0021324]
 [ 0.0084815  0.0853046 -0.0094116 ... -0.0506122  0.0025093  0.029204 ]
 [ 0.002194  -0.0187864 -0.019315  ...  0.0316487  0.0088945 -0.0366451]
 ...
 [ 0.0097889 -0.0280737  0.0160733 ...  0.0094535 -0.0200816 -0.0075234]
 [-0.0379429 -0.0084511 -0.0061759 ...  0.0823837 -0.0227093  0.0137005]
 [ 0.0652215  0.029205   0.0038191 ... -0.030776  -0.0474529 -0.0195976]]
