[LSTM Bias]
Input Gate Bias:
[ 0.0175458  0.0313136  0.0124276 -0.0530306 -0.0322343 -0.0471068 -0.0020159 -0.0422106 -0.0304533  0.1116073
  0.0202835 -0.0381375  0.0214758  0.0149559 -0.0106998 -0.0037965  0.0113007 -0.0425864 -0.0101904  0.0055312
  0.0207736 -0.0627519 -0.0582136 -0.0322146 -0.0255971 -0.0326817  0.0207693 -0.0314938 -0.0563546 -0.0772654
 -0.0000178 -0.0035372 -0.0329425 -0.0007206 -0.0024479 -0.0497512  0.014195  -0.0433982  0.0122415  0.0235201
 -0.0075744 -0.0268677 -0.0021686 -0.0141103  0.0129703 -0.024883   0.0188109  0.0105911  0.0308628  0.0352205
 -0.0563774  0.0135072 -0.0153758 -0.0097389  0.0191578 -0.0082475 -0.0485011 -0.0540025 -0.0428838  0.0167745
 -0.0074264  0.0008133 -0.0685872 -0.0951985  0.0486765  0.0111256  0.0061696 -0.037983   0.0096813 -0.015282
  0.0130868 -0.0402239  0.0115767 -0.0385989 -0.0315737  0.0092225 -0.0211516 -0.0094123 -0.0173026 -0.000851
  0.0206495 -0.0050509 -0.029158   0.0678377  0.0046295  0.0240272 -0.045243  -0.0478014 -0.00366    0.0120478
  0.0030334  0.1138723  0.0480746  0.0117536 -0.0258944 -0.0756322  0.0131603 -0.0833982 -0.0489029  0.0191837
 -0.0377712  0.0107109 -0.0420542 -0.0434581 -0.0323034 -0.0189147  0.0121504  0.0253807  0.0129937 -0.0180509
 -0.0064824 -0.0353817  0.0156843  0.0198973 -0.0474717 -0.0345659 -0.0316152  0.0064761  0.0124198 -0.0530025
 -0.0331088  0.0068377  0.0036088 -0.0268153  0.0549992  0.0020985  0.0655431  0.0027714  0.0236333  0.0225904
  0.1466645 -0.0541237 -0.0582103 -0.0026109  0.0246607 -0.0262511 -0.039885   0.0010768  0.086824   0.0033685
 -0.0400641  0.0293779 -0.0576937  0.0289377 -0.0491904 -0.0541134  0.0177199 -0.008798   0.0253064 -0.0443048
  0.0134405  0.0413629 -0.0767294  0.0882022 -0.0450764  0.0214387  0.0047356 -0.0353207 -0.018076  -0.0117956
 -0.0379521  0.019777   0.006003  -0.0381063  0.0216236  0.0429227  0.00896    0.0051941 -0.0270385 -0.0202573
 -0.0046038 -0.0056546 -0.0061849  0.0122642  0.0112919  0.0028959 -0.0209971  0.0136157 -0.0421506  0.0028485
  0.0132096 -0.0072194  0.0150995  0.0081214  0.0160131 -0.0523598  0.0093896 -0.0500163 -0.0275769  0.1890841
 -0.0039618 -0.0289643 -0.0549594  0.0168908 -0.0107856  0.0709831 -0.0030542  0.0037743 -0.0335739  0.023072
 -0.0348984  0.1073905 -0.033611  -0.006345  -0.0346165 -0.0118506 -0.0402672 -0.0418614  0.0383235 -0.0350222
  0.018705   0.0561002 -0.0506759  0.0025376 -0.0015491  0.008908   0.0193636  0.0183322 -0.001992  -0.0330898
 -0.0093269  0.0230139  0.0317234  0.0027603 -0.0312043  0.0057667  0.0043978  0.0276054  0.0392148 -0.0535835
 -0.0090332 -0.0009514 -0.0328489 -0.0002539  0.0063953 -0.0428815  0.0124073  0.0415918 -0.0401334  0.0000057
  0.0035877  0.0158191  0.0067832 -0.0112673 -0.0121048 -0.0037676  0.0080697 -0.0243824  0.013673  -0.0040856
 -0.05743    0.0132989  0.0210184 -0.0035395  0.0026455 -0.0184346]

Forget Gate Bias:
[0.9918604 0.9628257 0.9916705 0.9208754 0.9736611 0.9519238 0.9865569 0.9696442 0.9742101 0.8281947 0.9829132
 0.9533864 0.9678528 0.9806362 0.9440091 0.9895693 0.9911992 0.9438425 0.9891563 0.9844251 0.9850222 0.8932967
 0.9383548 0.9651868 0.9728924 0.9653881 0.9909921 0.9708303 0.9008396 0.9010208 0.874826  0.9622051 0.9489107
 0.9712996 0.9695707 0.9483575 0.992451  0.9498745 0.9900256 0.9963111 0.9722539 0.9562297 0.9969679 0.9276426
 0.9843549 0.975541  0.9710959 0.9905441 0.9224285 0.9704061 0.8741791 0.9952237 0.9337015 0.9586353 0.9924185
 0.9287422 0.9117185 0.9394616 0.9635464 0.9742391 0.9766791 0.9822834 0.9199822 0.8460286 0.9534003 0.9950411
 0.9919588 0.9471593 0.9943615 0.9812943 1.0001018 0.9354835 0.9820649 0.9647285 0.9668306 0.985155  0.9781798
 0.9856408 0.9153958 0.9863221 0.9852413 0.9848437 0.9742197 0.8602028 0.9394733 0.9610205 0.9577122 0.9429595
 0.9938751 0.9650213 0.9915003 0.8660422 0.9496075 0.9898354 0.9615203 0.9503593 0.9791185 0.9040479 0.9530717
 0.9869949 0.9626433 0.9828875 0.9557304 0.9553894 0.9705008 0.980261  0.9430941 0.9457524 0.994108  0.9638486
 0.9621593 0.9207535 0.9533154 0.9801252 0.896959  0.9434611 0.9276627 0.9935788 0.9881529 0.9341494 0.974517
 1.0021846 0.9717833 0.9392119 0.9356403 0.9976642 0.9519041 0.9921091 0.982291  0.9350924 0.8966281 0.932379
 0.9341684 0.9653084 0.9430996 0.9771608 0.9465958 0.9617288 0.8371277 0.8966681 0.9658202 0.9791247 0.9411675
 0.9601768 0.9412347 0.8364209 0.9882224 0.9476743 0.9763259 0.9076934 0.984904  0.8567789 0.9076033 0.8731992
 0.9458999 0.9808762 0.9381746 0.9528675 0.9744937 0.9072223 0.9684812 0.9856721 0.9964817 0.9623981 0.9918865
 0.975718  0.9903849 0.9827768 0.975938  0.9439933 0.980211  0.9783028 0.9610698 1.0009937 0.9936493 0.9919262
 0.9594341 0.9974738 0.9278837 0.9992929 0.9953709 0.9545476 0.9895669 0.9702249 0.9892237 0.9489917 0.9943733
 0.8846419 0.9165276 0.8052634 0.9781178 0.9749448 0.9288475 0.9456636 0.9642279 0.9297165 0.9944189 0.8257816
 0.9580267 0.9896638 0.9582833 0.9068152 0.9669309 0.981196  0.9730146 0.9408898 0.9147996 0.9358557 0.9832753
 0.9560218 0.9825618 0.97869   0.9275091 0.9677638 0.9804734 0.9730134 0.99085   0.9943445 0.994133  0.9587935
 0.9892033 0.9782264 0.9734929 0.9855511 0.9638265 0.9930421 0.9921838 0.9688598 0.9738222 0.9406895 0.9917014
 0.9966505 0.9503637 0.9819652 0.9908056 0.9573825 0.959013  0.9824645 0.9427375 0.9815539 0.9932844 0.9692416
 0.9871819 0.9794669 0.9334052 0.989769  0.984013  0.9807212 0.7828669 0.9390414 0.9474303 0.9354585 0.9591658
 0.973716  1.0013727 0.9789919]

Cell Gate Bias:
[ 0.0151981 -0.0147984 -0.0100622  0.0152443 -0.0189459 -0.0124111 -0.0016914 -0.0186411  0.0048231  0.0281097
 -0.0102737  0.0073469  0.0260471 -0.0145413  0.0172212 -0.0018302  0.0097071 -0.0177619  0.0063623 -0.0057093
  0.0060131 -0.0059442  0.0176975 -0.0168463 -0.0072457  0.0116206  0.0114216  0.0117999  0.0154206 -0.003144
  0.0016354 -0.0122528  0.0027373 -0.0035254  0.0151408  0.0134786 -0.0115453 -0.0102642 -0.0053492  0.0109925
  0.0040184 -0.0025075  0.0181456  0.0025807 -0.0139086 -0.0140409 -0.0106878 -0.0124406 -0.0017625 -0.0070607
 -0.0003622 -0.0123643  0.0034765  0.0010913  0.0235487  0.0010933  0.0042183  0.0103031  0.0149207  0.0072027
  0.0109065 -0.0245968  0.0113258 -0.0021543 -0.0048163  0.0093188  0.0111248 -0.0131646 -0.014512   0.0078406
 -0.0055943  0.0106647 -0.0070769  0.0114173 -0.0079711  0.0078034 -0.0120441 -0.0005228 -0.000521   0.0030291
 -0.0080304 -0.001053  -0.0183209 -0.0177045 -0.0032427 -0.0275889 -0.0107688 -0.0108613  0.00448    0.0079373
 -0.0057215  0.0061594 -0.0049232  0.0126337 -0.0075381 -0.0031768 -0.0074378 -0.0084066  0.0124435 -0.0079138
 -0.0092267 -0.0088151  0.0125966  0.0135475 -0.0123261 -0.0228988  0.0072702  0.0221146 -0.0102523  0.0049958
 -0.0026903 -0.0239029 -0.0058625  0.0072488 -0.0097998 -0.0152625  0.0034462 -0.011833   0.0070108  0.0124627
 -0.0169476 -0.0135797  0.0042011 -0.0116431 -0.0108586 -0.0099889 -0.0057237  0.0057417  0.0040156 -0.0187175
 -0.007456  -0.0113156 -0.0155181 -0.0109262  0.00719   -0.007219   0.0075168 -0.0005075  0.0016577  0.0006989
 -0.0199656  0.0146623  0.0148771  0.0046876 -0.0204398  0.0109097 -0.0118263  0.000266  -0.01007    0.0067763
 -0.0106222  0.0028193  0.0082093  0.0049953  0.01602    0.0099583  0.0040842  0.014478   0.0004316 -0.0070253
  0.0110562  0.0140017 -0.0096192  0.0180217 -0.0136003  0.0151014 -0.012652   0.0007345 -0.0122178  0.0064598
 -0.0020049  0.0138437  0.0046632  0.0105951  0.0149164  0.0122012 -0.012383   0.0107499 -0.0020435  0.0123535
  0.0135038  0.0011026  0.0069253  0.0035574 -0.0103733  0.0087328 -0.0110329 -0.0173004  0.0016804  0.0046131
  0.0247817 -0.0178011 -0.005907  -0.0053788 -0.0209912 -0.022393  -0.0015448 -0.0011732 -0.0100619 -0.0087352
  0.0137921 -0.0088413  0.0123918  0.0002412  0.0113453  0.018818   0.0034862 -0.0064109  0.0148719  0.0069803
  0.0125372 -0.0154862 -0.0128273  0.022531   0.0240397  0.0067694 -0.0082118  0.0099728  0.0074429  0.0049044
 -0.0104215  0.0099898 -0.0105802 -0.0213272  0.0051188 -0.0078449 -0.0090749  0.0070399  0.0130446 -0.0053468
 -0.003641   0.0131505 -0.0058078  0.0056004  0.0043654  0.0191915 -0.0031196 -0.0116027 -0.0052447 -0.0044801
  0.010315  -0.0225677 -0.0088631 -0.0025298  0.0050574 -0.0180178  0.0000068 -0.0122763 -0.0026039  0.0000244
 -0.0150292 -0.0171823  0.0164681  0.0023613 -0.0087312  0.029776 ]

Output Gate Bias:
[ 0.017545   0.0308746  0.010641  -0.0520097 -0.0320762 -0.0454306 -0.0027111 -0.0411537 -0.0319252  0.1058337
  0.0197846 -0.0380867  0.0223214  0.0148317 -0.0099778 -0.003241   0.0105238 -0.0415002 -0.0104949  0.0055375
  0.0206979 -0.0632933 -0.0569332 -0.0313734 -0.0255022 -0.0319515  0.0208378 -0.0302811 -0.0573605 -0.0815065
 -0.0039417 -0.0047666 -0.0327706 -0.0011171 -0.0048935 -0.0486652  0.0150054 -0.0427089  0.0103871  0.0233407
 -0.0072827 -0.0290981 -0.0021031 -0.0145801  0.0119026 -0.0248307  0.0162199  0.0096246  0.029008   0.0331649
 -0.0654183  0.0126611 -0.0195576 -0.0113006  0.0191008 -0.0090882 -0.0464914 -0.0526308 -0.0414013  0.0171351
 -0.0087198  0.0026166 -0.068429  -0.1005688  0.0444596  0.0107931  0.005553  -0.0391868  0.0087881 -0.014634
  0.0127641 -0.0511395  0.0109894 -0.0393272 -0.031579   0.0098151 -0.0206909 -0.0101482 -0.0188276  0.0000706
  0.0186382 -0.0064229 -0.0288358  0.0681519  0.0006302  0.0216243 -0.045825  -0.0452797 -0.0044253  0.0119144
  0.003099   0.103633   0.04646    0.010574  -0.0245495 -0.0735319  0.013416  -0.0838877 -0.0503393  0.0175335
 -0.0366588  0.0105793 -0.0426869 -0.0454913 -0.0323573 -0.0187821  0.0105849  0.0230423  0.0135503 -0.0178157
 -0.0109762 -0.0354348  0.0159562  0.0196821 -0.0483846 -0.0343383 -0.030884   0.0047924  0.0124489 -0.0520201
 -0.0330014  0.0058808  0.0006823 -0.0267938  0.0536965  0.0004918  0.0620462  0.0011787  0.0227029  0.0218661
  0.1408487 -0.05252   -0.0592675 -0.0018946  0.0226596 -0.0262978 -0.04048   -0.0009997  0.0770289  0.0026544
 -0.0395219  0.0285182 -0.0576162  0.0273944 -0.0497223 -0.0535161  0.0161776 -0.0096824  0.0240703 -0.0450256
  0.0116198  0.0272855 -0.0821618  0.0755531 -0.0440816  0.0213957  0.001318  -0.0358922 -0.0175948 -0.0130844
 -0.0391827  0.0207134  0.0047178 -0.038589   0.0193785  0.0428645  0.0081799  0.0038112 -0.0285016 -0.0201376
 -0.0043333 -0.0087579 -0.0097774  0.0104314  0.0106907  0.0020102 -0.0223331  0.0134623 -0.0414333  0.0019303
  0.0130074 -0.0092594  0.0145789  0.0050207  0.0156725 -0.0535596  0.0088796 -0.0497474 -0.0300268  0.1720112
 -0.0039928 -0.029762  -0.0564223  0.0134348 -0.0108048  0.0702784 -0.0030759 -0.0024322 -0.032965   0.0218315
 -0.0346036  0.1046679 -0.0318493 -0.0077958 -0.0336351 -0.0160281 -0.0453314 -0.0421185  0.0388421 -0.0358303
  0.0182406  0.0529423 -0.0497379 -0.0003188 -0.001521   0.0086041  0.020065   0.0159584 -0.003341  -0.0334
 -0.0090104  0.0228939  0.0317495  0.0024716 -0.0307714  0.0054152  0.0038301  0.0254401  0.0387528 -0.0524533
 -0.0086526 -0.0012154 -0.0330589  0.0002173  0.0057768 -0.0431035  0.0092308  0.0400789 -0.040424  -0.00133
  0.0036694  0.0149125  0.0061569 -0.0131624 -0.0136803 -0.0034588  0.0060375 -0.0245679  0.0036573 -0.0056817
 -0.0568138  0.0148973  0.0159823 -0.0061172  0.0019809 -0.0181446]
