[Dense] Bobot ke-0:
[[-0.11424659]
 [ 0.1039667 ]
 [ 0.13418914]
 [ 0.08772374]
 [-0.05950826]
 [-0.08029974]
 [ 0.09513262]
 [-0.06596301]
 [ 0.08515513]
 [-0.14044781]
 [ 0.15666033]
 [ 0.08904523]
 [-0.0910625 ]
 [ 0.10956883]
 [-0.10359024]
 [ 0.08674331]
 [-0.1201909 ]
 [-0.11451656]
 [ 0.11830696]
 [ 0.16117433]
 [-0.15964983]
 [-0.09105232]
 [ 0.09281183]
 [-0.09534493]
 [-0.07030446]
 [ 0.09167034]
 [-0.12865704]
 [ 0.04977544]
 [ 0.08677436]
 [-0.08037376]
 [ 0.14516011]
 [ 0.09398745]
 [ 0.08686241]
 [ 0.10472259]
 [-0.11012403]
 [ 0.11000346]
 [ 0.17789003]
 [-0.10641456]
 [ 0.12653503]
 [-0.13244817]
 [ 0.14156689]
 [ 0.08337554]
 [-0.00462529]
 [ 0.15002188]
 [ 0.10095622]
 [-0.07730076]
 [ 0.12010565]
 [ 0.15718403]
 [ 0.17332661]
 [ 0.17284185]
 [ 0.08664696]
 [ 0.08576002]
 [-0.10309425]
 [ 0.15105155]
 [-0.08695837]
 [ 0.12886   ]
 [ 0.10902029]
 [ 0.06123606]
 [ 0.09953319]
 [-0.10693012]
 [-0.08264439]
 [ 0.09910314]
 [ 0.13307776]
 [-0.08269134]
 [ 0.11940507]
 [-0.12133174]
 [-0.11147133]
 [-0.09906752]
 [ 0.16057752]
 [ 0.04324929]
 [ 0.08935933]
 [ 0.15909961]
 [ 0.16980709]
 [ 0.08290835]
 [-0.08657563]
 [-0.10610169]
 [-0.10220149]
 [-0.08656365]
 [ 0.12934259]
 [-0.1326819 ]
 [ 0.12035613]
 [ 0.1178148 ]
 [-0.07039266]
 [ 0.11045962]
 [-0.12894042]
 [ 0.09554275]
 [-0.11731042]
 [-0.08541393]
 [-0.077526  ]
 [-0.11916482]
 [ 0.14246209]
 [-0.18495145]
 [ 0.15083331]
 [-0.1316326 ]
 [-0.10242751]
 [-0.08461124]
 [ 0.10987759]
 [-0.12110575]
 [ 0.10406183]
 [ 0.14708121]
 [-0.09931137]
 [ 0.1164801 ]
 [ 0.07273141]
 [ 0.08621517]
 [-0.09417546]
 [ 0.0006749 ]
 [-0.12248194]
 [-0.11674123]
 [ 0.11948887]
 [ 0.11302768]
 [ 0.08632138]
 [-0.06030708]
 [ 0.16985337]
 [-0.14597034]
 [-0.14104636]
 [-0.02266706]
 [ 0.11638428]
 [ 0.0864452 ]
 [-0.1486416 ]
 [ 0.09445792]
 [-0.12188927]
 [ 0.08363345]
 [-0.10749643]
 [-0.047369  ]
 [ 0.13549155]
 [ 0.07897538]
 [ 0.18452387]
 [-0.08734453]
 [-0.13125822]
 [ 0.08595347]
 [ 0.22386049]
 [-0.12607273]
 [-0.11076374]
 [ 0.06747518]
 [-0.14220986]
 [-0.12154374]
 [ 0.11582675]
 [ 0.15504397]
 [ 0.19544631]
 [-0.1458902 ]
 [-0.07393611]
 [-0.09404903]
 [ 0.10962556]
 [-0.13711919]
 [-0.0860577 ]
 [ 0.11984353]
 [ 0.12365238]
 [-0.11992382]
 [ 0.14969519]
 [ 0.12672251]
 [ 0.12995043]
 [-0.17686516]
 [ 0.11826892]
 [-0.18461879]
 [ 0.06405242]
 [-0.146331  ]
 [-0.16696727]
 [ 0.06910229]
 [ 0.08073316]
 [ 0.12892577]
 [ 0.10731058]
 [-0.129534  ]
 [ 0.11215545]
 [ 0.06799132]
 [ 0.08954553]
 [-0.17669837]
 [ 0.10183503]
 [-0.11756933]
 [-0.09759289]
 [ 0.11054613]
 [ 0.14044546]
 [-0.08917812]
 [-0.1282175 ]
 [-0.0936607 ]
 [-0.09341203]
 [-0.07337233]
 [ 0.09093541]
 [-0.13305213]
 [-0.10803373]
 [-0.07295483]
 [-0.1594528 ]
 [-0.13417959]
 [-0.13567278]
 [-0.11096083]
 [ 0.12857604]
 [ 0.12128777]
 [ 0.169265  ]
 [-0.08504388]
 [ 0.12493666]
 [-0.19835079]
 [ 0.00328227]
 [-0.07553501]
 [-0.11644719]
 [ 0.1174337 ]
 [ 0.03173555]
 [ 0.1042916 ]
 [-0.11091683]
 [-0.13749549]
 [-0.1075486 ]
 [ 0.10389153]
 [ 0.06238304]
 [ 0.19549523]
 [ 0.08376575]
 [-0.09773771]
 [ 0.09762368]
 [-0.12204406]
 [ 0.10957192]
 [-0.1027533 ]
 [-0.13382149]
 [ 0.10793771]
 [-0.1504412 ]
 [ 0.13635403]
 [-0.08357103]
 [-0.10385076]
 [-0.07054943]
 [-0.10439608]
 [ 0.14948632]
 [-0.12288213]
 [-0.0852197 ]
 [ 0.08739363]
 [-0.04155494]
 [-0.12263682]
 [ 0.11959743]
 [ 0.06911857]
 [ 0.12998366]
 [ 0.11648651]
 [ 0.07963676]
 [-0.16855109]
 [-0.12657362]
 [-0.10386755]
 [-0.13384919]
 [-0.03998023]
 [-0.14131376]
 [-0.09576239]
 [-0.10877287]
 [ 0.09075353]
 [ 0.12077678]
 [ 0.18591525]
 [-0.12949096]
 [ 0.09972645]
 [-0.08921193]
 [ 0.08576307]
 [ 0.1520394 ]
 [-0.13626574]
 [-0.15871769]
 [ 0.01774563]
 [-0.14776516]
 [-0.10250592]
 [-0.15500458]
 [ 0.15463118]
 [-0.11310241]
 [ 0.09160309]
 [-0.09709148]
 [-0.10720069]
 [ 0.07153855]
 [ 0.02603984]]

