[Dense] Bobot ke-0:
[[-0.1142466]
 [ 0.1039667]
 [ 0.1341891]
 [ 0.0877237]
 [-0.0595083]
 [-0.0802997]
 [ 0.0951326]
 [-0.065963 ]
 [ 0.0851551]
 [-0.1404478]
 [ 0.1566603]
 [ 0.0890452]
 [-0.0910625]
 [ 0.1095688]
 [-0.1035902]
 [ 0.0867433]
 [-0.1201909]
 [-0.1145166]
 [ 0.118307 ]
 [ 0.1611743]
 [-0.1596498]
 [-0.0910523]
 [ 0.0928118]
 [-0.0953449]
 [-0.0703045]
 [ 0.0916703]
 [-0.128657 ]
 [ 0.0497754]
 [ 0.0867744]
 [-0.0803738]
 [ 0.1451601]
 [ 0.0939875]
 [ 0.0868624]
 [ 0.1047226]
 [-0.110124 ]
 [ 0.1100035]
 [ 0.17789  ]
 [-0.1064146]
 [ 0.126535 ]
 [-0.1324482]
 [ 0.1415669]
 [ 0.0833755]
 [-0.0046253]
 [ 0.1500219]
 [ 0.1009562]
 [-0.0773008]
 [ 0.1201056]
 [ 0.157184 ]
 [ 0.1733266]
 [ 0.1728418]
 [ 0.086647 ]
 [ 0.08576  ]
 [-0.1030942]
 [ 0.1510516]
 [-0.0869584]
 [ 0.12886  ]
 [ 0.1090203]
 [ 0.0612361]
 [ 0.0995332]
 [-0.1069301]
 [-0.0826444]
 [ 0.0991031]
 [ 0.1330778]
 [-0.0826913]
 [ 0.1194051]
 [-0.1213317]
 [-0.1114713]
 [-0.0990675]
 [ 0.1605775]
 [ 0.0432493]
 [ 0.0893593]
 [ 0.1590996]
 [ 0.1698071]
 [ 0.0829084]
 [-0.0865756]
 [-0.1061017]
 [-0.1022015]
 [-0.0865636]
 [ 0.1293426]
 [-0.1326819]
 [ 0.1203561]
 [ 0.1178148]
 [-0.0703927]
 [ 0.1104596]
 [-0.1289404]
 [ 0.0955428]
 [-0.1173104]
 [-0.0854139]
 [-0.077526 ]
 [-0.1191648]
 [ 0.1424621]
 [-0.1849515]
 [ 0.1508333]
 [-0.1316326]
 [-0.1024275]
 [-0.0846112]
 [ 0.1098776]
 [-0.1211057]
 [ 0.1040618]
 [ 0.1470812]
 [-0.0993114]
 [ 0.1164801]
 [ 0.0727314]
 [ 0.0862152]
 [-0.0941755]
 [ 0.0006749]
 [-0.1224819]
 [-0.1167412]
 [ 0.1194889]
 [ 0.1130277]
 [ 0.0863214]
 [-0.0603071]
 [ 0.1698534]
 [-0.1459703]
 [-0.1410464]
 [-0.0226671]
 [ 0.1163843]
 [ 0.0864452]
 [-0.1486416]
 [ 0.0944579]
 [-0.1218893]
 [ 0.0836334]
 [-0.1074964]
 [-0.047369 ]
 [ 0.1354915]
 [ 0.0789754]
 [ 0.1845239]
 [-0.0873445]
 [-0.1312582]
 [ 0.0859535]
 [ 0.2238605]
 [-0.1260727]
 [-0.1107637]
 [ 0.0674752]
 [-0.1422099]
 [-0.1215437]
 [ 0.1158267]
 [ 0.155044 ]
 [ 0.1954463]
 [-0.1458902]
 [-0.0739361]
 [-0.094049 ]
 [ 0.1096256]
 [-0.1371192]
 [-0.0860577]
 [ 0.1198435]
 [ 0.1236524]
 [-0.1199238]
 [ 0.1496952]
 [ 0.1267225]
 [ 0.1299504]
 [-0.1768652]
 [ 0.1182689]
 [-0.1846188]
 [ 0.0640524]
 [-0.146331 ]
 [-0.1669673]
 [ 0.0691023]
 [ 0.0807332]
 [ 0.1289258]
 [ 0.1073106]
 [-0.129534 ]
 [ 0.1121555]
 [ 0.0679913]
 [ 0.0895455]
 [-0.1766984]
 [ 0.101835 ]
 [-0.1175693]
 [-0.0975929]
 [ 0.1105461]
 [ 0.1404455]
 [-0.0891781]
 [-0.1282175]
 [-0.0936607]
 [-0.093412 ]
 [-0.0733723]
 [ 0.0909354]
 [-0.1330521]
 [-0.1080337]
 [-0.0729548]
 [-0.1594528]
 [-0.1341796]
 [-0.1356728]
 [-0.1109608]
 [ 0.128576 ]
 [ 0.1212878]
 [ 0.169265 ]
 [-0.0850439]
 [ 0.1249367]
 [-0.1983508]
 [ 0.0032823]
 [-0.075535 ]
 [-0.1164472]
 [ 0.1174337]
 [ 0.0317355]
 [ 0.1042916]
 [-0.1109168]
 [-0.1374955]
 [-0.1075486]
 [ 0.1038915]
 [ 0.062383 ]
 [ 0.1954952]
 [ 0.0837657]
 [-0.0977377]
 [ 0.0976237]
 [-0.1220441]
 [ 0.1095719]
 [-0.1027533]
 [-0.1338215]
 [ 0.1079377]
 [-0.1504412]
 [ 0.136354 ]
 [-0.083571 ]
 [-0.1038508]
 [-0.0705494]
 [-0.1043961]
 [ 0.1494863]
 [-0.1228821]
 [-0.0852197]
 [ 0.0873936]
 [-0.0415549]
 [-0.1226368]
 [ 0.1195974]
 [ 0.0691186]
 [ 0.1299837]
 [ 0.1164865]
 [ 0.0796368]
 [-0.1685511]
 [-0.1265736]
 [-0.1038675]
 [-0.1338492]
 [-0.0399802]
 [-0.1413138]
 [-0.0957624]
 [-0.1087729]
 [ 0.0907535]
 [ 0.1207768]
 [ 0.1859152]
 [-0.129491 ]
 [ 0.0997265]
 [-0.0892119]
 [ 0.0857631]
 [ 0.1520394]
 [-0.1362657]
 [-0.1587177]
 [ 0.0177456]
 [-0.1477652]
 [-0.1025059]
 [-0.1550046]
 [ 0.1546312]
 [-0.1131024]
 [ 0.0916031]
 [-0.0970915]
 [-0.1072007]
 [ 0.0715386]
 [ 0.0260398]]

